{"gradients/classifier.3.bias": {"_type": "histogram", "values": [1.0, 1.0, 0.0, 0.0, 0.0, 0.0, 0.0, 0.0, 0.0, 0.0, 0.0, 0.0, 0.0, 0.0, 0.0, 0.0, 0.0, 0.0, 0.0, 0.0, 0.0, 0.0, 0.0, 0.0, 0.0, 0.0, 0.0, 0.0, 0.0, 0.0, 0.0, 0.0, 0.0, 0.0, 0.0, 0.0, 0.0, 0.0, 0.0, 0.0, 0.0, 1.0, 0.0, 0.0, 0.0, 0.0, 0.0, 0.0, 0.0, 0.0, 0.0, 0.0, 0.0, 0.0, 0.0, 0.0, 0.0, 0.0, 0.0, 0.0, 0.0, 0.0, 0.0, 1.0], "bins": [-0.01943827047944069, -0.0187093373388052, -0.017980404198169708, -0.01725146919488907, -0.016522536054253578, -0.015793602913618088, -0.015064669772982597, -0.014335736632347107, -0.013606803491711617, -0.012877870351076126, -0.012148936279118061, -0.01142000313848257, -0.01069106999784708, -0.009962135925889015, -0.009233202785253525, -0.008504269644618034, -0.007775335572659969, -0.007046401966363192, -0.006317468825727701, -0.0055885352194309235, -0.004859602078795433, -0.004130668472498655, -0.0034017348662018776, -0.002672801725566387, -0.0019438681192696095, -0.0012149347458034754, -0.0004860012559220195, 0.00024293223395943642, 0.0009718656074255705, 0.0017007989808917046, 0.0024297325871884823, 0.0031586657278239727, 0.0038875993341207504, 0.004616532940417528, 0.005345466081053019, 0.006074399687349796, 0.006803332827985287, 0.0075322664342820644, 0.008261200040578842, 0.008990133181214333, 0.009719066321849823, 0.010447999462485313, 0.011176933534443378, 0.011905866675078869, 0.01263479981571436, 0.013363733887672424, 0.014092667028307915, 0.014821600168943405, 0.01555053424090147, 0.016279468312859535, 0.017008401453495026, 0.017737334594130516, 0.018466267734766006, 0.019195200875401497, 0.019924134016036987, 0.020653069019317627, 0.021382002159953117, 0.022110935300588608, 0.022839868441224098, 0.02356880158185959, 0.02429773658514023, 0.02502666972577572, 0.02575560286641121, 0.0264845360070467, 0.02721346914768219]}, "_timestamp": 1720224048.859221, "gradients/classifier.3.weight": {"_type": "histogram", "values": [1.0, 0.0, 0.0, 0.0, 0.0, 0.0, 0.0, 0.0, 0.0, 0.0, 0.0, 0.0, 2.0, 2.0, 1.0, 1.0, 0.0, 2.0, 2.0, 1.0, 6.0, 6.0, 6.0, 7.0, 8.0, 12.0, 24.0, 36.0, 41.0, 51.0, 65.0, 170.0, 1056.0, 238.0, 100.0, 63.0, 37.0, 27.0, 16.0, 17.0, 18.0, 10.0, 7.0, 2.0, 4.0, 0.0, 1.0, 2.0, 2.0, 1.0, 0.0, 0.0, 0.0, 1.0, 0.0, 0.0, 0.0, 0.0, 0.0, 0.0, 0.0, 1.0, 0.0, 1.0], "bins": [-0.04675842449069023, -0.04532403498888016, -0.043889645487070084, -0.04245525598526001, -0.041020870208740234, -0.03958648070693016, -0.03815209120512009, -0.03671770170331001, -0.03528331220149994, -0.033848922699689865, -0.03241453319787979, -0.030980145558714867, -0.029545757919549942, -0.028111368417739868, -0.026676978915929794, -0.02524258941411972, -0.023808203637599945, -0.02237381413578987, -0.020939426496624947, -0.019505036994814873, -0.018070649355649948, -0.016636259853839874, -0.0152018703520298, -0.013767481781542301, -0.012333093211054802, -0.010898704640567303, -0.009464316070079803, -0.00802992656826973, -0.00659553799778223, -0.005161149427294731, -0.0037267599254846573, -0.002292371354997158, -0.0008579790592193604, 0.0005764097440987825, 0.0020107985474169254, 0.003445187583565712, 0.004879576154053211, 0.0063139647245407104, 0.007748354226350784, 0.009182742796838284, 0.010617131367325783, 0.012051519937813282, 0.013485908508300781, 0.014920298010110855, 0.01635468751192093, 0.017789075151085854, 0.019223464652895927, 0.020657852292060852, 0.022092241793870926, 0.023526631295681, 0.024961018934845924, 0.026395408436655998, 0.027829796075820923, 0.029264185577630997, 0.03069857507944107, 0.032132964581251144, 0.03356735408306122, 0.03500174358487129, 0.036436133086681366, 0.03787051886320114, 0.039304908365011215, 0.04073929786682129, 0.04217368736863136, 0.04360807687044144, 0.04504246264696121]}, "gradients/classifier.2.weight": {"_type": "histogram", "values": [0.0, 0.0, 0.0, 0.0, 0.0, 0.0, 0.0, 0.0, 0.0, 0.0, 0.0, 0.0, 0.0, 0.0, 0.0, 0.0, 0.0, 0.0, 0.0, 0.0, 0.0, 0.0, 0.0, 0.0, 0.0, 0.0, 0.0, 0.0, 0.0, 0.0, 0.0, 0.0, 1.0, 0.0, 0.0, 0.0, 0.0, 0.0, 0.0, 0.0, 0.0, 0.0, 0.0, 0.0, 0.0, 0.0, 0.0, 0.0, 0.0, 0.0, 0.0, 0.0, 0.0, 0.0, 0.0, 0.0, 0.0, 0.0, 0.0, 0.0, 0.0, 0.0, 0.0, 0.0], "bins": [-0.30349019169807434, -0.30349019169807434, -0.30349019169807434, -0.30349019169807434, -0.30349019169807434, -0.30349019169807434, -0.30349019169807434, -0.30349019169807434, -0.30349019169807434, -0.30349019169807434, -0.30349019169807434, -0.30349019169807434, -0.30349019169807434, -0.30349019169807434, -0.30349019169807434, -0.30349019169807434, -0.30349019169807434, -0.30349019169807434, -0.30349019169807434, -0.30349019169807434, -0.30349019169807434, -0.30349019169807434, -0.30349019169807434, -0.30349019169807434, -0.30349019169807434, -0.30349019169807434, -0.30349019169807434, -0.30349019169807434, -0.30349019169807434, -0.30349019169807434, -0.30349019169807434, -0.30349019169807434, -0.30349019169807434, -0.30349019169807434, -0.30349019169807434, -0.30349019169807434, -0.30349019169807434, -0.30349019169807434, -0.30349019169807434, -0.30349019169807434, -0.30349019169807434, -0.30349019169807434, -0.30349019169807434, -0.30349019169807434, -0.30349019169807434, -0.30349019169807434, -0.30349019169807434, -0.30349019169807434, -0.30349019169807434, -0.30349019169807434, -0.30349019169807434, -0.30349019169807434, -0.30349019169807434, -0.30349019169807434, -0.30349019169807434, -0.30349019169807434, -0.30349019169807434, -0.30349019169807434, -0.30349019169807434, -0.30349019169807434, -0.30349019169807434, -0.30349019169807434, -0.30349019169807434, -0.30349019169807434, -0.30349019169807434]}, "gradients/classifier.0.bias": {"_type": "histogram", "values": [1.0, 0.0, 0.0, 0.0, 1.0, 0.0, 1.0, 2.0, 2.0, 1.0, 3.0, 4.0, 5.0, 8.0, 5.0, 11.0, 19.0, 41.0, 44.0, 54.0, 154.0, 33.0, 29.0, 18.0, 19.0, 12.0, 16.0, 7.0, 4.0, 4.0, 2.0, 3.0, 2.0, 2.0, 0.0, 1.0, 1.0, 1.0, 1.0, 0.0, 0.0, 0.0, 0.0, 0.0, 0.0, 0.0, 0.0, 0.0, 0.0, 0.0, 0.0, 0.0, 0.0, 0.0, 0.0, 0.0, 0.0, 0.0, 0.0, 0.0, 0.0, 0.0, 0.0, 1.0], "bins": [-0.0022477086167782545, -0.0021381345577538013, -0.0020285602658987045, -0.0019189860904589295, -0.0018094119150191545, -0.0016998377395793796, -0.0015902635641396046, -0.0014806893886998296, -0.0013711152132600546, -0.0012615410378202796, -0.0011519668623805046, -0.0010423926869407296, -0.0009328185115009546, -0.0008232443360611796, -0.0007136701606214046, -0.0006040959851816297, -0.0004945218097418547, -0.0003849476343020797, -0.0002753734588623047, -0.0001657992834225297, -5.622510798275471e-05, 5.334906745702028e-05, 0.00016292324289679527, 0.00027249741833657026, 0.00038207159377634525, 0.0004916457692161202, 0.0006012199446558952, 0.0007107941200956702, 0.0008203682955354452, 0.0009299424709752202, 0.0010395166464149952, 0.0011490908218547702, 0.0012586652301251888, 0.0013682394055649638, 0.0014778135810047388, 0.0015873877564445138, 0.0016969619318842888, 0.0018065361073240638, 0.0019161102827638388, 0.002025684341788292, 0.0021352586336433887, 0.0022448329254984856, 0.0023544069845229387, 0.002463981043547392, 0.0025735553354024887, 0.0026831296272575855, 0.0027927036862820387, 0.002902277745306492, 0.0030118520371615887, 0.0031214263290166855, 0.0032310003880411386, 0.003340574447065592, 0.0034501487389206886, 0.0035597230307757854, 0.0036692970898002386, 0.0037788711488246918, 0.0038884454406797886, 0.003998019732534885, 0.004107593558728695, 0.004217167850583792, 0.0043267421424388885, 0.004436316434293985, 0.004545890726149082, 0.004655464552342892, 0.0047650388441979885]}, "gradients/classifier.0.weight": {"_type": "histogram", "values": [1.0, 0.0, 1.0, 0.0, 1.0, 0.0, 0.0, 1.0, 3.0, 0.0, 1.0, 7.0, 7.0, 6.0, 4.0, 5.0, 6.0, 6.0, 9.0, 18.0, 16.0, 28.0, 27.0, 46.0, 70.0, 106.0, 194.0, 284.0, 559.0, 1155.0, 2210.0, 5105.0, 13652.0, 44024.0, 148590.0, 28416.0, 9966.0, 3862.0, 1661.0, 911.0, 477.0, 252.0, 155.0, 91.0, 43.0, 38.0, 33.0, 25.0, 12.0, 19.0, 10.0, 11.0, 12.0, 2.0, 1.0, 1.0, 1.0, 0.0, 2.0, 0.0, 0.0, 0.0, 0.0, 1.0], "bins": [-0.0017277863807976246, -0.0016774475807324052, -0.0016271087806671858, -0.0015767698641866446, -0.0015264310641214252, -0.0014760922640562057, -0.0014257534639909863, -0.001375414663925767, -0.0013250757474452257, -0.0012747369473800063, -0.001224398147314787, -0.0011740592308342457, -0.0011237204307690263, -0.0010733816307038069, -0.0010230428306385875, -0.0009727040305733681, -0.0009223652305081487, -0.0008720264304429293, -0.000821687572170049, -0.0007713487721048295, -0.0007210099138319492, -0.0006706711137667298, -0.0006203323137015104, -0.000569993513636291, -0.0005196546553634107, -0.00046931582619436085, -0.000418976997025311, -0.0003686381969600916, -0.00031829936779104173, -0.00026796053862199187, -0.00021762173855677247, -0.0001672829093877226, -0.00011694396380335093, -6.660514191025868e-05, -1.6266320017166436e-05, 3.4072494599968195e-05, 8.441132376901805e-05, 0.0001347501529380679, 0.00018508895300328732, 0.00023542778217233717, 0.00028576661134138703, 0.0003361054405104369, 0.00038644426967948675, 0.00043678306974470615, 0.000487121898913756, 0.0005374607280828059, 0.0005877995281480253, 0.0006381383864209056, 0.000688477186486125, 0.0007388159865513444, 0.0007891548448242247, 0.0008394936448894441, 0.0008898325031623244, 0.0009401713032275438, 0.0009905101032927632, 0.0010408489033579826, 0.0010911878198385239, 0.0011415266199037433, 0.0011918654199689627, 0.001242204336449504, 0.0012925431365147233, 0.0013428819365799427, 0.001393220736645162, 0.0014435595367103815, 0.001493898336775601]}, "gradients/FFM.value_layer.bias": {"_type": "histogram", "values": [64.0, 0.0, 0.0, 0.0, 0.0, 0.0, 0.0, 0.0, 0.0, 0.0, 0.0, 0.0, 0.0, 0.0, 0.0, 0.0, 0.0, 0.0, 0.0, 0.0, 0.0, 0.0, 0.0, 0.0, 0.0, 0.0, 0.0, 0.0, 0.0, 0.0, 0.0, 0.0, 0.0, 0.0, 0.0, 0.0, 0.0, 0.0, 0.0, 0.0, 0.0, 0.0, 0.0, 0.0, 0.0, 0.0, 0.0, 0.0, 0.0, 0.0, 0.0, 0.0, 0.0, 0.0, 0.0, 0.0, 0.0, 0.0, 0.0, 0.0, 0.0, 0.0, 0.0, 64.0], "bins": [0.0006579257315024734, 0.0007349697989411652, 0.0008120138663798571, 0.0008890579920262098, 0.0009661020012572408, 0.0010431461269035935, 0.0011201901361346245, 0.0011972342617809772, 0.00127427838742733, 0.0013513225130736828, 0.0014283665223047137, 0.0015054106479510665, 0.0015824546571820974, 0.0016594987828284502, 0.001736542908474803, 0.001813586917705834, 0.0018906309269368649, 0.0019676750525832176, 0.0020447191782295704, 0.0021217630710452795, 0.0021988071966916323, 0.002275851322337985, 0.002352895447984338, 0.002429939340800047, 0.0025069834664463997, 0.0025840275920927525, 0.0026610717177391052, 0.0027381156105548143, 0.002815159736201167, 0.00289220386184752, 0.0029692479874938726, 0.0030462918803095818, 0.003123336238786578, 0.003200380364432931, 0.0032774244900792837, 0.003354468382894993, 0.0034315125085413456, 0.0035085566341876984, 0.003585600759834051, 0.003662644885480404, 0.003739688778296113, 0.0038167329039424658, 0.0038937770295888186, 0.003970820922404528, 0.00404786504805088, 0.004124909173697233, 0.004201953299343586, 0.004278997424989939, 0.0043560415506362915, 0.004433085676282644, 0.004510129801928997, 0.00458717392757535, 0.004664218053221703, 0.004741261713206768, 0.004818305838853121, 0.004895349964499474, 0.004972394090145826, 0.005049438215792179, 0.005126482341438532, 0.005203526467084885, 0.005280570592731237, 0.005357614252716303, 0.005434658378362656, 0.005511702504009008, 0.005588746629655361]}, "gradients/FFM.value_layer.weight": {"_type": "histogram", "values": [64.0, 0.0, 0.0, 64.0, 0.0, 0.0, 64.0, 128.0, 64.0, 0.0, 64.0, 0.0, 0.0, 0.0, 0.0, 192.0, 256.0, 64.0, 256.0, 128.0, 192.0, 320.0, 256.0, 320.0, 384.0, 384.0, 576.0, 256.0, 704.0, 576.0, 128.0, 512.0, 1024.0, 1152.0, 448.0, 256.0, 384.0, 512.0, 832.0, 256.0, 512.0, 512.0, 896.0, 512.0, 448.0, 448.0, 384.0, 512.0, 256.0, 128.0, 256.0, 0.0, 256.0, 0.0, 128.0, 128.0, 0.0, 64.0, 0.0, 64.0, 0.0, 0.0, 0.0, 64.0], "bins": [-0.0012668996350839734, -0.0012314938940107822, -0.0011960880365222692, -0.001160682295449078, -0.001125276554375887, -0.0010898708133026958, -0.0010544650722295046, -0.0010190592147409916, -0.0009836534736678004, -0.0009482477325946093, -0.0009128419333137572, -0.0008774361340329051, -0.0008420303929597139, -0.0008066246518865228, -0.0007712188526056707, -0.0007358130533248186, -0.0007004073122516274, -0.0006650015711784363, -0.0006295957718975842, -0.0005941899726167321, -0.000558784231543541, -0.0005233784904703498, -0.0004879726911894977, -0.0004525669210124761, -0.00041716115083545446, -0.00038175538065843284, -0.0003463496104814112, -0.0003109438403043896, -0.000275538070127368, -0.00024013229995034635, -0.00020472652977332473, -0.0001693207595963031, -0.00013391498941928148, -9.850921924225986e-05, -6.310344906523824e-05, -2.7697678888216615e-05, 7.708091288805008e-06, 4.311386146582663e-05, 7.851963164284825e-05, 0.00011392540181986988, 0.0001493311719968915, 0.00018473694217391312, 0.00022014271235093474, 0.00025554848252795637, 0.000290954252704978, 0.0003263600228819996, 0.00036176579305902123, 0.00039717156323604286, 0.0004325773334130645, 0.0004679831035900861, 0.0005033888737671077, 0.0005387946730479598, 0.000574200414121151, 0.0006096061551943421, 0.0006450119544751942, 0.0006804177537560463, 0.0007158234948292375, 0.0007512292359024286, 0.0007866350351832807, 0.0008220408344641328, 0.000857446575537324, 0.0008928523166105151, 0.0009282581158913672, 0.0009636639151722193, 0.0009990696562454104]}, "gradients/FFM.query_layer.bias": {"_type": "histogram", "values": [1.0, 0.0, 0.0, 0.0, 0.0, 1.0, 0.0, 1.0, 1.0, 0.0, 1.0, 0.0, 1.0, 0.0, 0.0, 1.0, 1.0, 0.0, 1.0, 2.0, 1.0, 4.0, 3.0, 9.0, 1.0, 8.0, 6.0, 15.0, 21.0, 14.0, 10.0, 9.0, 5.0, 2.0, 0.0, 0.0, 2.0, 0.0, 1.0, 1.0, 2.0, 0.0, 0.0, 1.0, 0.0, 0.0, 0.0, 0.0, 0.0, 0.0, 0.0, 0.0, 0.0, 0.0, 0.0, 0.0, 1.0, 0.0, 0.0, 0.0, 0.0, 0.0, 0.0, 1.0], "bins": [-0.00802407506853342, -0.007742913905531168, -0.007461752742528915, -0.00718059204518795, -0.0068994308821856976, -0.006618269719183445, -0.00633710902184248, -0.006055947858840227, -0.0057747866958379745, -0.005493625532835722, -0.005212464369833469, -0.004931303672492504, -0.0046501425094902515, -0.004368981346487999, -0.004087820649147034, -0.003806659486144781, -0.0035254983231425285, -0.003244337160140276, -0.002963176229968667, -0.002682015299797058, -0.0024008541367948055, -0.002119692973792553, -0.001838532043620944, -0.001557371113449335, -0.0012762099504470825, -0.0009950489038601518, -0.000713887857273221, -0.00043272681068629026, -0.0001515657640993595, 0.00012959528248757124, 0.000410756329074502, 0.0006919172592461109, 0.0009730784222483635, 0.0012542394688352942, 0.001535400515422225, 0.0018165615620091558, 0.0020977226085960865, 0.002378883771598339, 0.002660044701769948, 0.002941205631941557, 0.0032223667949438095, 0.003503527957946062, 0.003784688888117671, 0.00406584981828928, 0.0043470109812915325, 0.004628172144293785, 0.00490933284163475, 0.005190494004637003, 0.0054716551676392555, 0.005752816330641508, 0.006033977493643761, 0.006315138190984726, 0.0065962993539869785, 0.006877460516989231, 0.007158621214330196, 0.007439782377332449, 0.0077209435403347015, 0.008002104237675667, 0.008283265866339207, 0.008564426563680172, 0.008845588192343712, 0.009126748889684677, 0.009407909587025642, 0.009689070284366608, 0.009970231913030148]}, "gradients/FFM.query_layer.weight": {"_type": "histogram", "values": [1.0, 0.0, 0.0, 0.0, 1.0, 0.0, 0.0, 0.0, 0.0, 1.0, 2.0, 3.0, 3.0, 0.0, 2.0, 6.0, 9.0, 9.0, 13.0, 13.0, 23.0, 30.0, 44.0, 65.0, 92.0, 110.0, 180.0, 272.0, 394.0, 636.0, 846.0, 1191.0, 1457.0, 1659.0, 1775.0, 1667.0, 1535.0, 1170.0, 966.0, 675.0, 504.0, 312.0, 223.0, 165.0, 96.0, 67.0, 45.0, 24.0, 29.0, 19.0, 12.0, 9.0, 2.0, 4.0, 7.0, 8.0, 2.0, 2.0, 1.0, 0.0, 2.0, 0.0, 0.0, 1.0], "bins": [-0.0036354048643261194, -0.003530528862029314, -0.0034256530925631523, -0.003320777090266347, -0.003215901320800185, -0.00311102531850338, -0.003006149549037218, -0.0029012735467404127, -0.0027963975444436073, -0.002691521542146802, -0.0025866457726806402, -0.002481769770383835, -0.002376894000917673, -0.0022720179986208677, -0.0021671419963240623, -0.0020622662268579006, -0.001957390457391739, -0.0018525145715102553, -0.0017476386856287718, -0.0016427626833319664, -0.0015378867974504828, -0.0014330109115689993, -0.0013281350256875157, -0.0012232591398060322, -0.0011183831375092268, -0.0010135072516277432, -0.0009086313075385988, -0.0008037554216571152, -0.0006988794775679708, -0.0005940035916864872, -0.0004891277058050036, -0.0003842517617158592, -0.0002793758176267147, -0.0001744999026414007, -6.962400220800191e-05, 3.525189822539687e-05, 0.00014012781321071088, 0.0002450037281960249, 0.00034987961407750845, 0.0004547555581666529, 0.0005596314440481365, 0.00066450732992962, 0.0007693832740187645, 0.000874259159900248, 0.0009791350457817316, 0.001084011048078537, 0.0011888868175446987, 0.001293762819841504, 0.0013986387057229877, 0.0015035145916044712, 0.0016083904774859548, 0.0017132663633674383, 0.0018181423656642437, 0.0019230182515457273, 0.002027894137427211, 0.002132770139724016, 0.002237645909190178, 0.0023425219114869833, 0.002447397680953145, 0.0025522736832499504, 0.002657149452716112, 0.0027620254550129175, 0.002866901457309723, 0.0029717772267758846, 0.00307665322907269]}, "gradients/FFM.key_layer.bias": {"_type": "histogram", "values": [2.0, 0.0, 0.0, 0.0, 1.0, 0.0, 0.0, 0.0, 0.0, 0.0, 0.0, 0.0, 0.0, 0.0, 1.0, 0.0, 1.0, 0.0, 3.0, 0.0, 1.0, 4.0, 0.0, 5.0, 1.0, 1.0, 2.0, 3.0, 1.0, 6.0, 13.0, 1.0, 6.0, 11.0, 6.0, 7.0, 8.0, 6.0, 3.0, 8.0, 8.0, 1.0, 1.0, 2.0, 0.0, 4.0, 2.0, 3.0, 1.0, 0.0, 1.0, 0.0, 0.0, 0.0, 1.0, 0.0, 1.0, 0.0, 0.0, 1.0, 0.0, 0.0, 0.0, 1.0], "bins": [-8.149072527885437e-10, -7.903508958406746e-10, -7.657945388928056e-10, -7.412381819449365e-10, -7.166818249970675e-10, -6.921254680491984e-10, -6.675691111013293e-10, -6.430127541534603e-10, -6.184563972055912e-10, -5.939000402577221e-10, -5.693436833098531e-10, -5.44787326361984e-10, -5.20230969414115e-10, -4.956746124662459e-10, -4.711182555183768e-10, -4.4656189857050776e-10, -4.220055416226387e-10, -3.9744918467476964e-10, -3.728928277269006e-10, -3.483364707790315e-10, -3.2378011383116245e-10, -2.992237568832934e-10, -2.7466739993542433e-10, -2.5011104298755527e-10, -2.255546860396862e-10, -2.0099832909181714e-10, -1.7644197214394808e-10, -1.5188561519607902e-10, -1.2732925824820995e-10, -1.0277290130034089e-10, -7.821654435247183e-11, -5.3660187404602766e-11, -2.9103830456733704e-11, -4.547473508864641e-12, 2.000888343900442e-11, 4.4565240386873484e-11, 6.912159733474255e-11, 9.367795428261161e-11, 1.1823431123048067e-10, 1.4279066817834973e-10, 1.673470251262188e-10, 1.9190338207408786e-10, 2.1645973902195692e-10, 2.41016095969826e-10, 2.6557245291769505e-10, 2.901288098655641e-10, 3.1468516681343317e-10, 3.3924152376130223e-10, 3.637978807091713e-10, 3.8835423765704036e-10, 4.129105946049094e-10, 4.374669515527785e-10, 4.6202330850064754e-10, 4.865796654485166e-10, 5.111360223963857e-10, 5.356923793442547e-10, 5.602487362921238e-10, 5.848050932399929e-10, 6.093614501878619e-10, 6.33917807135731e-10, 6.584741640836e-10, 6.830305210314691e-10, 7.075868779793382e-10, 7.321432349272072e-10, 7.566995918750763e-10]}, "gradients/FFM.key_layer.weight": {"_type": "histogram", "values": [2.0, 0.0, 0.0, 2.0, 0.0, 2.0, 2.0, 1.0, 3.0, 2.0, 4.0, 4.0, 3.0, 9.0, 14.0, 15.0, 21.0, 27.0, 39.0, 53.0, 71.0, 93.0, 108.0, 167.0, 199.0, 269.0, 387.0, 536.0, 750.0, 1062.0, 1410.0, 1677.0, 1835.0, 1646.0, 1468.0, 1194.0, 870.0, 675.0, 477.0, 337.0, 239.0, 191.0, 141.0, 109.0, 78.0, 51.0, 38.0, 31.0, 13.0, 11.0, 8.0, 12.0, 11.0, 10.0, 1.0, 2.0, 0.0, 1.0, 1.0, 0.0, 1.0, 0.0, 0.0, 1.0], "bins": [-0.0035062183160334826, -0.003398155327886343, -0.0032900923397392035, -0.003182029351592064, -0.0030739663634449244, -0.002965903375297785, -0.0028578403871506453, -0.0027497773990035057, -0.002641714410856366, -0.0025336514227092266, -0.002425588434562087, -0.0023175254464149475, -0.002209462458267808, -0.0021013994701206684, -0.001993336481973529, -0.0018852734938263893, -0.0017772105056792498, -0.0016691475175321102, -0.0015610845293849707, -0.0014530215412378311, -0.0013449585530906916, -0.001236895564943552, -0.0011288325767964125, -0.001020769588649273, -0.0009127066005021334, -0.0008046436123549938, -0.0006965806242078543, -0.0005885176360607147, -0.00048045464791357517, -0.0003723916597664356, -0.0002643286716192961, -0.00015626568347215652, -4.8202695325016975e-05, 5.9860292822122574e-05, 0.00016792328096926212, 0.00027598626911640167, 0.0003840492572635412, 0.0004921122454106808, 0.0006001752335578203, 0.0007082382217049599, 0.0008163012098520994, 0.000924364197999239, 0.0010324271861463785, 0.001140490174293518, 0.0012485531624406576, 0.0013566161505877972, 0.0014646791387349367, 0.0015727421268820763, 0.0016808051150292158, 0.0017888681031763554, 0.001896931091323495, 0.0020049940794706345, 0.002113057067617774, 0.0022211200557649136, 0.002329183043912053, 0.0024372460320591927, 0.002545309020206332, 0.0026533720083534718, 0.0027614349965006113, 0.002869497984647751, 0.0029775609727948904, 0.00308562396094203, 0.0031936869490891695, 0.003301749937236309, 0.0034098129253834486]}, "gradients/Conv_stem.conv_stem_2.conv_block.3.weight": {"_type": "histogram", "values": [1.0, 0.0, 0.0, 0.0, 0.0, 0.0, 0.0, 0.0, 0.0, 0.0, 0.0, 2.0, 1.0, 0.0, 2.0, 2.0, 0.0, 1.0, 2.0, 3.0, 5.0, 11.0, 9.0, 4.0, 11.0, 14.0, 11.0, 15.0, 14.0, 21.0, 18.0, 14.0, 13.0, 16.0, 9.0, 8.0, 7.0, 6.0, 8.0, 4.0, 4.0, 4.0, 4.0, 1.0, 1.0, 1.0, 0.0, 3.0, 0.0, 0.0, 1.0, 1.0, 1.0, 0.0, 0.0, 0.0, 1.0, 0.0, 0.0, 0.0, 0.0, 1.0, 0.0, 1.0], "bins": [-0.011801587417721748, -0.011401639319956303, -0.011001690290868282, -0.010601742193102837, -0.010201794095337391, -0.009801845997571945, -0.009401896968483925, -0.00900194887071848, -0.008602000772953033, -0.008202052675187588, -0.007802104111760855, -0.007402155548334122, -0.007002207450568676, -0.006602258887141943, -0.00620231032371521, -0.005802362225949764, -0.005402413662523031, -0.005002465099096298, -0.0046025170013308525, -0.0042025684379041195, -0.0038026203401386738, -0.0034026717767119408, -0.0030027234461158514, -0.002602775115519762, -0.0022028267849236727, -0.0018028784543275833, -0.001402930123731494, -0.0010029816767200828, -0.0006030333461239934, -0.0002030848991125822, 0.00019686343148350716, 0.0005968117620795965, 0.0009967600926756859, 0.0013967084232717752, 0.0017966567538678646, 0.0021966053172945976, 0.0025965534150600433, 0.0029965019784867764, 0.0033964503090828657, 0.003796398639678955, 0.004196346737444401, 0.004596295300871134, 0.0049962433986365795, 0.0053961919620633125, 0.005796140059828758, 0.006196088623255491, 0.006596037186682224, 0.00699598528444767, 0.007395933847874403, 0.007795882411301136, 0.008195830509066582, 0.008595778606832027, 0.008995727635920048, 0.009395675733685493, 0.00979562383145094, 0.010195571929216385, 0.010595520958304405, 0.010995469056069851, 0.011395418085157871, 0.011795366182923317, 0.012195314280688763, 0.012595262378454208, 0.012995211407542229, 0.013395159505307674, 0.01379510760307312]}, "gradients/Conv_stem.conv_stem_2.conv_block.3.bias": {"_type": "histogram", "values": [1.0, 0.0, 0.0, 0.0, 2.0, 0.0, 1.0, 1.0, 2.0, 1.0, 4.0, 2.0, 2.0, 7.0, 2.0, 2.0, 5.0, 9.0, 3.0, 8.0, 9.0, 12.0, 9.0, 13.0, 13.0, 11.0, 11.0, 7.0, 10.0, 6.0, 9.0, 8.0, 11.0, 10.0, 7.0, 3.0, 7.0, 6.0, 3.0, 5.0, 4.0, 4.0, 0.0, 1.0, 1.0, 7.0, 3.0, 3.0, 1.0, 1.0, 0.0, 1.0, 1.0, 0.0, 2.0, 0.0, 3.0, 0.0, 0.0, 0.0, 0.0, 0.0, 0.0, 2.0], "bins": [-0.019794825464487076, -0.019078368321061134, -0.018361913040280342, -0.0176454558968544, -0.01692899875342846, -0.016212541610002518, -0.015496086329221725, -0.014779629185795784, -0.014063172973692417, -0.01334671676158905, -0.012630259618163109, -0.011913803406059742, -0.011197347193956375, -0.010480890050530434, -0.009764433838427067, -0.0090479776263237, -0.008331520482897758, -0.007615063805133104, -0.00689860712736845, -0.006182150915265083, -0.005465694237500429, -0.004749237559735775, -0.004032781347632408, -0.003316324669867754, -0.0025998679921031, -0.0018834114307537675, -0.0011669548694044352, -0.00045049842447042465, 0.0002659582532942295, 0.0009824149310588837, 0.0016988711431622505, 0.0024153278209269047, 0.003131786361336708, 0.0038482430391013622, 0.004564699716866016, 0.005281155928969383, 0.005997612606734037, 0.0067140692844986916, 0.007430525496602058, 0.008146982640028, 0.008863438852131367, 0.009579895064234734, 0.010296352207660675, 0.011012808419764042, 0.011729264631867409, 0.01244572177529335, 0.013162177987396717, 0.013878634199500084, 0.014595091342926025, 0.015311547555029392, 0.01602800376713276, 0.0167444609105587, 0.017460918053984642, 0.018177375197410583, 0.018893830478191376, 0.019610287621617317, 0.02032674476504326, 0.0210432019084692, 0.021759657189249992, 0.022476114332675934, 0.023192571476101875, 0.023909028619527817, 0.02462548390030861, 0.02534194104373455, 0.026058396324515343]}, "gradients/Conv_stem.conv_stem_2.conv_block.1.weight": {"_type": "histogram", "values": [1.0, 0.0, 0.0, 1.0, 1.0, 2.0, 4.0, 6.0, 1.0, 5.0, 3.0, 6.0, 8.0, 8.0, 10.0, 20.0, 17.0, 24.0, 29.0, 51.0, 73.0, 127.0, 165.0, 309.0, 453.0, 883.0, 1484.0, 2747.0, 4785.0, 8524.0, 13255.0, 18333.0, 17198.0, 12081.0, 7562.0, 4424.0, 2456.0, 1261.0, 748.0, 492.0, 243.0, 136.0, 108.0, 70.0, 38.0, 40.0, 21.0, 25.0, 13.0, 13.0, 9.0, 5.0, 5.0, 4.0, 2.0, 2.0, 2.0, 4.0, 0.0, 2.0, 3.0, 1.0, 0.0, 1.0], "bins": [-0.0016572978347539902, -0.0016053648432716727, -0.0015534317353740335, -0.001501498743891716, -0.0014495657524093986, -0.001397632760927081, -0.0013456996530294418, -0.0012937666615471244, -0.001241833670064807, -0.0011899006785824895, -0.0011379675706848502, -0.0010860345792025328, -0.0010341015877202153, -0.0009821685962378979, -0.0009302354883402586, -0.0008783024968579412, -0.0008263693889603019, -0.0007744363392703235, -0.0007225033477880061, -0.0006705702980980277, -0.0006186373066157103, -0.0005667042569257319, -0.0005147712072357535, -0.00046283818664960563, -0.00041090516606345773, -0.0003589721454773098, -0.0003070391248911619, -0.00025510607520118356, -0.00020317305461503565, -0.00015124003402888775, -9.930698433890939e-05, -4.737396375276148e-05, 4.559056833386421e-06, 5.649208469549194e-05, 0.00010842511255759746, 0.0001603581476956606, 0.0002122911682818085, 0.0002642241888679564, 0.00031615723855793476, 0.00036809025914408267, 0.00042002327973023057, 0.0004719563003163785, 0.0005238893209025264, 0.0005758223705925047, 0.0006277554202824831, 0.0006796884117648005, 0.0007316214614547789, 0.0007835545111447573, 0.0008354875026270747, 0.0008874205523170531, 0.0009393535437993705, 0.0009912865934893489, 0.0010432195849716663, 0.0010951526928693056, 0.001147085684351623, 0.0011990186758339405, 0.0012509517837315798, 0.0013028847752138972, 0.0013548178831115365, 0.001406750874593854, 0.0014586838660761714, 0.0015106168575584888, 0.0015625499654561281, 0.0016144829569384456, 0.001666415948420763]}, "gradients/Conv_stem.conv_stem_2.conv_block.1.bias": {"_type": "histogram", "values": [1.0, 0.0, 0.0, 0.0, 0.0, 2.0, 0.0, 0.0, 0.0, 0.0, 0.0, 0.0, 1.0, 1.0, 2.0, 3.0, 4.0, 1.0, 4.0, 6.0, 3.0, 5.0, 6.0, 6.0, 4.0, 9.0, 12.0, 9.0, 8.0, 13.0, 14.0, 16.0, 12.0, 18.0, 19.0, 18.0, 13.0, 0.0, 6.0, 4.0, 11.0, 2.0, 6.0, 1.0, 4.0, 0.0, 1.0, 1.0, 0.0, 0.0, 1.0, 2.0, 0.0, 0.0, 1.0, 1.0, 0.0, 1.0, 2.0, 1.0, 0.0, 0.0, 0.0, 1.0], "bins": [-0.00022810122754890472, -0.0002207843353971839, -0.0002134674577973783, -0.00020615056564565748, -0.00019883367349393666, -0.00019151679589413106, -0.00018419990374241024, -0.00017688301159068942, -0.00016956613399088383, -0.000162249241839163, -0.0001549323642393574, -0.0001476154720876366, -0.000140298594487831, -0.00013298170233611017, -0.00012566481018438935, -0.00011834792530862615, -0.00011103104043286294, -0.00010371415555709973, -9.639727068133652e-05, -8.90803785296157e-05, -8.176349365385249e-05, -7.444660877808928e-05, -6.712971662636846e-05, -5.9812831750605255e-05, -5.249594687484205e-05, -4.517906199907884e-05, -3.7862173485336825e-05, -3.054528497159481e-05, -2.3228400095831603e-05, -1.5911515220068395e-05, -8.59462670632638e-06, -1.2777381925843656e-06, 6.039132131263614e-06, 1.3356018826016225e-05, 2.0672905520768836e-05, 2.7989792215521447e-05, 3.530667891027406e-05, 4.2623563786037266e-05, 4.994045229977928e-05, 5.7257340813521296e-05, 6.45742256892845e-05, 7.189111056504771e-05, 7.920799544081092e-05, 8.652488759253174e-05, 9.384177246829495e-05, 0.00010115865734405816, 0.00010847554949577898, 0.00011579243437154219, 0.0001231093192473054, 0.00013042621139902622, 0.0001377430889988318, 0.00014505998115055263, 0.00015237685875035822, 0.00015969375090207905, 0.00016701064305379987, 0.00017432752065360546, 0.00018164441280532628, 0.0001889613049570471, 0.0001962781825568527, 0.00020359507470857352, 0.00021091196686029434, 0.00021822884446009994, 0.00022554573661182076, 0.00023286262876354158, 0.00024017950636334717]}, "gradients/Conv_stem.conv_stem_1.conv_block.3.weight": {"_type": "histogram", "values": [1.0, 1.0, 0.0, 0.0, 0.0, 0.0, 0.0, 0.0, 0.0, 0.0, 2.0, 0.0, 0.0, 0.0, 3.0, 2.0, 2.0, 3.0, 1.0, 0.0, 1.0, 2.0, 7.0, 1.0, 2.0, 9.0, 3.0, 6.0, 1.0, 1.0, 3.0, 7.0, 3.0, 9.0, 2.0, 5.0, 4.0, 5.0, 5.0, 6.0, 5.0, 4.0, 1.0, 5.0, 1.0, 1.0, 0.0, 4.0, 1.0, 0.0, 2.0, 0.0, 1.0, 1.0, 1.0, 0.0, 0.0, 0.0, 0.0, 1.0, 1.0, 0.0, 0.0, 2.0], "bins": [-0.0030087309423834085, -0.0029160750564187765, -0.002823419403284788, -0.002730763517320156, -0.0026381078641861677, -0.0025454519782215357, -0.0024527963250875473, -0.0023601404391229153, -0.0022674845531582832, -0.002174828667193651, -0.002082173014059663, -0.001989517128095031, -0.0018968614749610424, -0.0018042055889964104, -0.0017115498194471002, -0.00161889404989779, -0.0015262383967638016, -0.0014335826272144914, -0.0013409268576651812, -0.0012482709717005491, -0.0011556153185665607, -0.0010629594326019287, -0.0009703036630526185, -0.0008776478935033083, -0.0007849921239539981, -0.0006923363544046879, -0.0005996805848553777, -0.0005070247570984066, -0.00041436898754909635, -0.00032171321799978614, -0.00022905739024281502, -0.0001364016206935048, -4.374608397483826e-05, 4.890970012638718e-05, 0.00014156548422761261, 0.00023422128288075328, 0.0003268770524300635, 0.0004195328219793737, 0.0005121886497363448, 0.000604844419285655, 0.0006975001888349652, 0.0007901559583842754, 0.0008828117279335856, 0.0009754675556905568, 0.0010681233834475279, 0.0011607790365815163, 0.0012534349225461483, 0.0013460906920954585, 0.0014387464616447687, 0.001531402231194079, 0.0016240580007433891, 0.0017167138867080212, 0.0018093695398420095, 0.0019020254258066416, 0.00199468107894063, 0.002087336964905262, 0.002179992850869894, 0.002272648736834526, 0.0023653043899685144, 0.0024579602759331465, 0.002550615929067135, 0.002643271815031767, 0.002735927700996399, 0.0028285833541303873, 0.0029212390072643757]}, "gradients/Conv_stem.conv_stem_1.conv_block.3.bias": {"_type": "histogram", "values": [1.0, 0.0, 0.0, 0.0, 1.0, 0.0, 0.0, 1.0, 0.0, 1.0, 0.0, 1.0, 0.0, 1.0, 0.0, 1.0, 1.0, 3.0, 2.0, 1.0, 5.0, 3.0, 2.0, 4.0, 2.0, 3.0, 4.0, 4.0, 2.0, 4.0, 1.0, 2.0, 5.0, 4.0, 4.0, 7.0, 2.0, 4.0, 3.0, 3.0, 2.0, 2.0, 3.0, 0.0, 1.0, 4.0, 3.0, 3.0, 0.0, 3.0, 2.0, 2.0, 2.0, 0.0, 5.0, 4.0, 1.0, 2.0, 0.0, 1.0, 2.0, 1.0, 0.0, 3.0], "bins": [-0.0008911766344681382, -0.0008656588615849614, -0.0008401410304941237, -0.0008146232576109469, -0.0007891054265201092, -0.0007635876536369324, -0.0007380698807537556, -0.0007125520496629179, -0.0006870342185720801, -0.0006615164456889033, -0.0006359986145980656, -0.0006104808417148888, -0.0005849630106240511, -0.0005594452377408743, -0.0005339274648576975, -0.0005084096337668598, -0.00048289186088368297, -0.0004573740588966757, -0.00043185625690966845, -0.00040633848402649164, -0.0003808206529356539, -0.0003553028800524771, -0.00032978507806546986, -0.0003042672760784626, -0.00027874947409145534, -0.0002532316721044481, -0.00022771387011744082, -0.0002021960826823488, -0.00017667828069534153, -0.00015116047870833427, -0.00012564269127324224, -0.00010012488928623497, -7.460708729922771e-05, -4.908928895019926e-05, -2.3571490601170808e-05, 1.946304109878838e-06, 2.74641060968861e-05, 5.298190808389336e-05, 7.849969551898539e-05, 0.00010401749750599265, 0.0001295352994929999, 0.00015505310148000717, 0.00018057090346701443, 0.00020608869090210646, 0.00023160649288911372, 0.0002571243094280362, 0.000282642082311213, 0.0003081598842982203, 0.00033367768628522754, 0.0003591954882722348, 0.00038471329025924206, 0.00041023106314241886, 0.0004357488942332566, 0.0004612666671164334, 0.00048678446910344064, 0.0005123022710904479, 0.0005378200439736247, 0.0005633378168568015, 0.0005888556479476392, 0.000614373420830816, 0.0006398912519216537, 0.0006654090248048306, 0.0006909267976880074, 0.0007164446287788451, 0.0007419624598696828]}, "gradients/Conv_stem.conv_stem_1.conv_block.1.weight": {"_type": "histogram", "values": [1.0, 1.0, 2.0, 0.0, 1.0, 2.0, 1.0, 2.0, 2.0, 4.0, 4.0, 2.0, 2.0, 3.0, 6.0, 8.0, 6.0, 11.0, 15.0, 14.0, 21.0, 36.0, 38.0, 50.0, 81.0, 165.0, 367.0, 744.0, 1423.0, 2587.0, 3907.0, 4727.0, 4069.0, 2807.0, 1560.0, 855.0, 412.0, 243.0, 127.0, 74.0, 52.0, 38.0, 26.0, 15.0, 13.0, 15.0, 7.0, 9.0, 3.0, 0.0, 1.0, 2.0, 4.0, 2.0, 1.0, 4.0, 1.0, 0.0, 0.0, 0.0, 0.0, 0.0, 2.0, 1.0], "bins": [-0.004032535944133997, -0.003905216231942177, -0.0037778965197503567, -0.0036505768075585365, -0.0035232570953667164, -0.0033959373831748962, -0.003268617670983076, -0.003141297958791256, -0.003013978246599436, -0.0028866585344076157, -0.0027593388222157955, -0.0026320191100239754, -0.0025046993978321552, -0.002377379685640335, -0.002250059973448515, -0.002122740261256695, -0.0019954207818955183, -0.0018681010697036982, -0.001740781357511878, -0.0016134616453200579, -0.0014861419331282377, -0.0013588222209364176, -0.0012315026251599193, -0.0011041829129680991, -0.000976863200776279, -0.0008495434885844588, -0.0007222237763926387, -0.0005949041224084795, -0.0004675844102166593, -0.00034026469802483916, -0.00021294504404067993, -8.562533184885979e-05, 4.169438034296036e-05, 0.00016901407798286527, 0.0002963337756227702, 0.0004236534587107599, 0.00055097317090258, 0.0006782928830944002, 0.0008056125370785594, 0.0009329322492703795, 0.0010602519614621997, 0.0011875716736540198, 0.00131489138584584, 0.0014422109816223383, 0.0015695306938141584, 0.0016968504060059786, 0.0018241701181977987, 0.0019514898303896189, 0.002078809542581439, 0.002206129254773259, 0.0023334489669650793, 0.0024607686791568995, 0.0025880883913487196, 0.0027154081035405397, 0.0028427275829017162, 0.0029700472950935364, 0.0030973670072853565, 0.0032246867194771767, 0.003352006431668997, 0.003479326143860817, 0.003606645856052637, 0.0037339655682444572, 0.0038612852804362774, 0.0039886049926280975, 0.004115924704819918]}, "gradients/Conv_stem.conv_stem_1.conv_block.1.bias": {"_type": "histogram", "values": [1.0, 0.0, 0.0, 0.0, 1.0, 0.0, 0.0, 0.0, 2.0, 0.0, 0.0, 1.0, 0.0, 0.0, 3.0, 0.0, 0.0, 1.0, 1.0, 1.0, 3.0, 5.0, 3.0, 3.0, 2.0, 5.0, 5.0, 5.0, 4.0, 3.0, 8.0, 5.0, 8.0, 9.0, 4.0, 5.0, 2.0, 5.0, 4.0, 2.0, 4.0, 5.0, 3.0, 1.0, 4.0, 2.0, 2.0, 1.0, 1.0, 1.0, 1.0, 0.0, 0.0, 0.0, 0.0, 0.0, 0.0, 0.0, 1.0, 0.0, 0.0, 0.0, 0.0, 1.0], "bins": [-0.0006105445791035891, -0.0005904996069148183, -0.0005704545765183866, -0.0005504096043296158, -0.0005303646321408451, -0.0005103196017444134, -0.0004902746295556426, -0.00047022965736687183, -0.0004501846560742706, -0.0004301396547816694, -0.0004100946825928986, -0.0003900496813002974, -0.00037000468000769615, -0.0003499597078189254, -0.00032991470652632415, -0.0003098697052337229, -0.00028982473304495215, -0.0002697797317523509, -0.00024973475956358016, -0.00022968975827097893, -0.00020964477153029293, -0.00018959978478960693, -0.0001695547834970057, -0.0001495097967563197, -0.0001294648100156337, -0.0001094198232749477, -8.937482925830409e-05, -6.932983524166048e-05, -4.9284848500974476e-05, -2.9239861760288477e-05, -9.194867743644863e-06, 1.085012627299875e-05, 3.089517122134566e-05, 5.094016160001047e-05, 7.098515197867528e-05, 9.103014599531889e-05, 0.00011107513273600489, 0.0001311201194766909, 0.00015116512076929212, 0.00017121010750997812, 0.00019125509425066411, 0.00021130008099135011, 0.00023134506773203611, 0.00025139006902463734, 0.00027143507031723857, 0.00029148004250600934, 0.00031152504379861057, 0.0003315700450912118, 0.00035161501727998257, 0.0003716600185725838, 0.00039170499076135457, 0.0004117499920539558, 0.00043179496424272656, 0.0004518399655353278, 0.000471884966827929, 0.0004919299390166998, 0.0005119749112054706, 0.0005320198833942413, 0.000552064913790673, 0.0005721098859794438, 0.0005921548581682146, 0.0006121998885646462, 0.000632244860753417, 0.0006522898329421878, 0.0006723348633386195]}, "gradients/Conv_stem.conv_stem_0.conv_block.3.weight": {"_type": "histogram", "values": [1.0, 0.0, 0.0, 1.0, 1.0, 0.0, 1.0, 0.0, 0.0, 2.0, 1.0, 1.0, 1.0, 1.0, 1.0, 1.0, 0.0, 0.0, 2.0, 0.0, 2.0, 0.0, 1.0, 2.0, 2.0, 1.0, 2.0, 3.0, 1.0, 2.0, 2.0, 1.0, 7.0, 0.0, 1.0, 1.0, 1.0, 2.0, 0.0, 2.0, 2.0, 0.0, 1.0, 1.0, 0.0, 2.0, 0.0, 2.0, 0.0, 0.0, 1.0, 0.0, 3.0, 2.0, 0.0, 0.0, 1.0, 0.0, 0.0, 0.0, 0.0, 1.0, 0.0, 1.0], "bins": [-0.0034659933298826218, -0.003356208326295018, -0.0032464233227074146, -0.003136638319119811, -0.0030268533155322075, -0.002917068311944604, -0.0028072833083570004, -0.002697498071938753, -0.002587713301181793, -0.0024779282975941896, -0.002368143294006586, -0.0022583582904189825, -0.002148573286831379, -0.0020387882832437754, -0.00192900316324085, -0.0018192181596532464, -0.001709433039650321, -0.0015996480360627174, -0.0014898630324751139, -0.0013800780288875103, -0.0012702930252999067, -0.0011605080217123032, -0.0010507229017093778, -0.0009409378981217742, -0.0008311528945341706, -0.0007213678909465671, -0.0006115828873589635, -0.000501797825563699, -0.00039201282197609544, -0.00028222781838849187, -0.0001724427565932274, -6.265775300562382e-05, 4.71270177513361e-05, 0.0001569120358908549, 0.0002666970540303737, 0.0003764820867218077, 0.0004862670903094113, 0.0005960520938970149, 0.0007058371556922793, 0.0008156221592798829, 0.0009254071628674865, 0.00103519216645509, 0.0011449771700426936, 0.001254762290045619, 0.0013645472936332226, 0.0014743322972208261, 0.0015841173008084297, 0.0016939023043960333, 0.0018036873079836369, 0.0019134723115712404, 0.002023257315158844, 0.0021330423187464476, 0.002242827322334051, 0.0023526123259216547, 0.0024623973295092583, 0.0025721825659275055, 0.0026819673366844654, 0.002791752340272069, 0.0029015373438596725, 0.003011322347447276, 0.0031211073510348797, 0.0032308923546224833, 0.003340677358210087, 0.003450462594628334, 0.0035602475982159376]}, "gradients/Conv_stem.conv_stem_0.conv_block.3.bias": {"_type": "histogram", "values": [3.0, 0.0, 0.0, 1.0, 0.0, 0.0, 1.0, 1.0, 1.0, 1.0, 0.0, 0.0, 3.0, 2.0, 2.0, 2.0, 0.0, 3.0, 3.0, 3.0, 3.0, 1.0, 0.0, 1.0, 2.0, 1.0, 0.0, 2.0, 1.0, 1.0, 1.0, 1.0, 2.0, 2.0, 1.0, 1.0, 3.0, 1.0, 1.0, 0.0, 0.0, 2.0, 1.0, 0.0, 0.0, 1.0, 2.0, 0.0, 2.0, 0.0, 1.0, 2.0, 1.0, 0.0, 0.0, 0.0, 0.0, 0.0, 0.0, 0.0, 0.0, 0.0, 0.0, 1.0], "bins": [-0.0016250208718702197, -0.001570938853546977, -0.0015168567188084126, -0.0014627747004851699, -0.0014086926821619272, -0.0013546106638386846, -0.001300528645515442, -0.0012464465107768774, -0.0011923644924536347, -0.001138282474130392, -0.0010842003393918276, -0.001030118321068585, -0.0009760363027453423, -0.0009219542844220996, -0.000867872207891196, -0.0008137901313602924, -0.0007597081130370498, -0.0007056260947138071, -0.0006515440181829035, -0.000597461941652, -0.0005433799233287573, -0.0004892979050055146, -0.00043521582847461104, -0.0003811337810475379, -0.0003270517336204648, -0.0002729696861933917, -0.00021888763876631856, -0.00016480559133924544, -0.00011072354391217232, -5.6641496485099196e-05, -2.5594490580260754e-06, 5.1522598369047046e-05, 0.00010560452938079834, 0.00015968657680787146, 0.00021376862423494458, 0.0002678506716620177, 0.0003219327190890908, 0.00037601476651616395, 0.00043009681394323707, 0.0004841788613703102, 0.0005382609087973833, 0.000592342927120626, 0.0006464250036515296, 0.0007005070801824331, 0.0007545890985056758, 0.0008086711168289185, 0.000862753193359822, 0.0009168352698907256, 0.0009709172882139683, 0.001024999306537211, 0.0010790813248604536, 0.001133163459599018, 0.0011872454779222608, 0.0012413274962455034, 0.001295409630984068, 0.0013494916493073106, 0.0014035736676305532, 0.001457655685953796, 0.0015117377042770386, 0.001565819839015603, 0.0016199018573388457, 0.0016739838756620884, 0.0017280660104006529, 0.0017821480287238955, 0.0018362300470471382]}, "gradients/Conv_stem.conv_stem_0.conv_block.1.weight": {"_type": "histogram", "values": [4.0, 3.0, 0.0, 2.0, 0.0, 1.0, 2.0, 5.0, 0.0, 6.0, 7.0, 6.0, 10.0, 11.0, 12.0, 9.0, 19.0, 17.0, 23.0, 25.0, 37.0, 49.0, 50.0, 74.0, 85.0, 96.0, 115.0, 127.0, 151.0, 182.0, 247.0, 241.0, 1032.0, 2562.0, 286.0, 218.0, 197.0, 161.0, 134.0, 142.0, 96.0, 78.0, 75.0, 51.0, 43.0, 34.0, 40.0, 28.0, 20.0, 26.0, 13.0, 14.0, 5.0, 9.0, 3.0, 6.0, 5.0, 5.0, 2.0, 2.0, 3.0, 2.0, 3.0, 1.0], "bins": [-0.004048337694257498, -0.003925943281501532, -0.0038035488687455654, -0.0036811544559895992, -0.003558760043233633, -0.003436365630477667, -0.003313970984891057, -0.003191576572135091, -0.0030691821593791246, -0.0029467877466231585, -0.0028243933338671923, -0.002701998921111226, -0.0025796042755246162, -0.00245720986276865, -0.002334815450012684, -0.0022124210372567177, -0.0020900266245007515, -0.0019676322117447853, -0.0018452377989888191, -0.0017228432698175311, -0.001600448857061565, -0.0014780544443055987, -0.0013556599151343107, -0.0012332655023783445, -0.0011108710896223783, -0.0009884766768664122, -0.0008660822059027851, -0.000743687734939158, -0.0006212933221831918, -0.0004988989094272256, -0.0003765044384635985, -0.0002541099674999714, -0.0001317150890827179, -9.320647222921252e-06, 0.00011307379463687539, 0.00023546823649667203, 0.0003578626783564687, 0.00048025709111243486, 0.000602651562076062, 0.0007250460330396891, 0.0008474404457956553, 0.0009698348585516214, 0.0010922292713075876, 0.0012146238004788756, 0.0013370182132348418, 0.001459412625990808, 0.001581807155162096, 0.0017042015679180622, 0.0018265959806740284, 0.0019489903934299946, 0.0020713848061859608, 0.002193779218941927, 0.002316173631697893, 0.0024385680444538593, 0.002560962690040469, 0.0026833571027964354, 0.0028057515155524015, 0.0029281459283083677, 0.003050540341064334, 0.0031729347538203, 0.00329532939940691, 0.003417723812162876, 0.0035401182249188423, 0.0036625126376748085, 0.0037849070504307747]}, "gradients/Conv_stem.conv_stem_0.conv_block.1.bias": {"_type": "histogram", "values": [1.0, 0.0, 0.0, 0.0, 1.0, 0.0, 1.0, 0.0, 0.0, 2.0, 0.0, 0.0, 1.0, 1.0, 1.0, 0.0, 0.0, 1.0, 1.0, 2.0, 5.0, 0.0, 2.0, 0.0, 1.0, 0.0, 0.0, 2.0, 3.0, 3.0, 2.0, 1.0, 2.0, 1.0, 2.0, 3.0, 3.0, 2.0, 1.0, 1.0, 4.0, 3.0, 1.0, 0.0, 0.0, 0.0, 0.0, 0.0, 1.0, 1.0, 1.0, 0.0, 1.0, 0.0, 1.0, 1.0, 1.0, 1.0, 0.0, 1.0, 0.0, 0.0, 0.0, 1.0], "bins": [-0.0014615776017308235, -0.0014167118351906538, -0.001371846068650484, -0.0013269804185256362, -0.0012821146519854665, -0.0012372488854452968, -0.0011923832353204489, -0.0011475174687802792, -0.0011026517022401094, -0.0010577859356999397, -0.00101292016915977, -0.0009680545190349221, -0.0009231887524947524, -0.0008783229859545827, -0.0008334572776220739, -0.0007885915692895651, -0.0007437258027493954, -0.0006988600362092257, -0.0006539943278767169, -0.000609128619544208, -0.0005642628530040383, -0.0005193970864638686, -0.0004745313781313598, -0.00042966564069502056, -0.0003847999032586813, -0.00033993416582234204, -0.0002950684283860028, -0.0002502026909496635, -0.00020533695351332426, -0.000160471216076985, -0.00011560547864064574, -7.073974120430648e-05, -2.5874003767967224e-05, 1.8991733668372035e-05, 6.38574711047113e-05, 0.00010872320854105055, 0.0001535889459773898, 0.00019845468341372907, 0.00024332042085006833, 0.0002881861582864076, 0.00033305189572274685, 0.0003779176331590861, 0.00042278337059542537, 0.0004676491080317646, 0.0005125148454681039, 0.0005573806120082736, 0.0006022463203407824, 0.0006471120286732912, 0.0006919777952134609, 0.0007368435617536306, 0.0007817092700861394, 0.0008265749784186482, 0.000871440744958818, 0.0009163065114989877, 0.0009611722198314965, 0.0010060379281640053, 0.001050903694704175, 0.0010957694612443447, 0.0011406352277845144, 0.0011855008779093623, 0.001230366644449532, 0.0012752324109897017, 0.0013200980611145496, 0.0013649638276547194, 0.001409829594194889]}, "gradients/MSM.conv_7.3.weight": {"_type": "histogram", "values": [1.0, 0.0, 0.0, 0.0, 0.0, 0.0, 0.0, 1.0, 0.0, 0.0, 0.0, 0.0, 0.0, 0.0, 0.0, 0.0, 0.0, 0.0, 0.0, 0.0, 0.0, 0.0, 0.0, 0.0, 0.0, 0.0, 0.0, 5.0, 0.0, 0.0, 0.0, 0.0, 0.0, 0.0, 0.0, 1.0, 0.0, 0.0, 0.0, 1.0, 0.0, 0.0, 0.0, 0.0, 0.0, 0.0, 1.0, 0.0, 0.0, 0.0, 0.0, 1.0, 0.0, 0.0, 0.0, 0.0, 0.0, 0.0, 0.0, 0.0, 0.0, 0.0, 0.0, 1.0], "bins": [-0.0039930036291480064, -0.0038458076305687428, -0.0036986118648201227, -0.003551415866240859, -0.003404220100492239, -0.0032570241019129753, -0.0031098281033337116, -0.0029626323375850916, -0.0028154365718364716, -0.002668240573257208, -0.002521044807508588, -0.002373848808929324, -0.002226653043180704, -0.0020794570446014404, -0.0019322611624374986, -0.0017850652802735567, -0.001637869281694293, -0.0014906733995303512, -0.0013434775173664093, -0.0011962815187871456, -0.0010490857530385256, -0.0009018898126669228, -0.00075469387229532, -0.0006074979901313782, -0.0004603021079674363, -0.00031310622580349445, -0.00016591031453572214, -1.871440326794982e-05, 0.00012848147889599204, 0.0002756773610599339, 0.0004228733014315367, 0.0005700691835954785, 0.0007172650657594204, 0.0008644609479233623, 0.0010116568300873041, 0.0011588528286665678, 0.0013060485944151878, 0.0014532445929944515, 0.0016004404751583934, 0.0017476363573223352, 0.001894832239486277, 0.002042028121650219, 0.0021892241202294827, 0.0023364198859781027, 0.0024836158845573664, 0.0026308116503059864, 0.00277800764888525, 0.0029252036474645138, 0.003072399413213134, 0.0032195954117923975, 0.0033667911775410175, 0.0035139871761202812, 0.0036611829418689013, 0.003808378940448165, 0.003955574706196785, 0.004102770704776049, 0.004249966703355312, 0.004397162701934576, 0.00454435870051384, 0.004691554233431816, 0.00483875023201108, 0.0049859462305903435, 0.005133142229169607, 0.005280338227748871, 0.005427533760666847]}, "gradients/MSM.conv_7.3.bias": {"_type": "histogram", "values": [1.0, 0.0, 0.0, 0.0, 0.0, 0.0, 0.0, 0.0, 0.0, 0.0, 0.0, 0.0, 0.0, 0.0, 0.0, 0.0, 0.0, 0.0, 0.0, 0.0, 0.0, 0.0, 0.0, 0.0, 0.0, 0.0, 0.0, 0.0, 0.0, 1.0, 1.0, 1.0, 1.0, 0.0, 0.0, 0.0, 0.0, 0.0, 1.0, 0.0, 0.0, 1.0, 0.0, 0.0, 0.0, 0.0, 0.0, 0.0, 0.0, 1.0, 1.0, 0.0, 0.0, 0.0, 0.0, 0.0, 0.0, 1.0, 1.0, 0.0, 0.0, 0.0, 0.0, 1.0], "bins": [-0.003768156049773097, -0.0036665862426161766, -0.0035650166682899, -0.0034634468611329794, -0.0033618772868067026, -0.003260307479649782, -0.0031587379053235054, -0.003057168098166585, -0.002955598523840308, -0.0028540287166833878, -0.002752459142357111, -0.0026508893352001905, -0.0025493197608739138, -0.0024477499537169933, -0.0023461803793907166, -0.002244610572233796, -0.0021430407650768757, -0.0020414709579199553, -0.0019399013835936785, -0.0018383316928520799, -0.0017367620021104813, -0.0016351921949535608, -0.001533622620627284, -0.0014320528134703636, -0.0013304832391440868, -0.0012289135484024882, -0.0011273438576608896, -0.001025774166919291, -0.0009242044761776924, -0.0008226347272284329, -0.0007210650364868343, -0.0006194953457452357, -0.000517925713211298, -0.0004163560224696994, -0.0003147863317281008, -0.00021321661188267171, -0.00011164692114107311, -1.0077201295644045e-05, 9.149248944595456e-05, 0.00019306218018755317, 0.0002946318709291518, 0.0003962015616707504, 0.000497771252412349, 0.0005993410013616085, 0.0007009106921032071, 0.0008024803828448057, 0.0009040500735864043, 0.001005619764328003, 0.0011071894550696015, 0.0012087591458112001, 0.0013103288365527987, 0.0014118985272943974, 0.001513468218035996, 0.0016150379087775946, 0.001716607715934515, 0.0018181772902607918, 0.0019197470974177122, 0.0020213169045746326, 0.0021228864789009094, 0.00222445628605783, 0.0023260258603841066, 0.002427595667541027, 0.002529165241867304, 0.0026307350490242243, 0.002732304623350501]}, "gradients/MSM.conv_7.1.weight": {"_type": "histogram", "values": [2.0, 2.0, 1.0, 0.0, 0.0, 1.0, 1.0, 0.0, 0.0, 1.0, 1.0, 2.0, 2.0, 3.0, 2.0, 1.0, 1.0, 5.0, 3.0, 3.0, 2.0, 1.0, 4.0, 3.0, 4.0, 2.0, 4.0, 72.0, 5.0, 4.0, 3.0, 1.0, 6.0, 3.0, 3.0, 1.0, 0.0, 1.0, 0.0, 3.0, 2.0, 0.0, 0.0, 3.0, 0.0, 1.0, 2.0, 0.0, 2.0, 0.0, 0.0, 0.0, 1.0, 1.0, 0.0, 0.0, 1.0, 0.0, 0.0, 0.0, 0.0, 0.0, 0.0, 2.0], "bins": [-0.011422110721468925, -0.011004016734659672, -0.010585923679172993, -0.010167829692363739, -0.00974973663687706, -0.009331642650067806, -0.008913548663258553, -0.008495455607771873, -0.00807736162096262, -0.007659268099814653, -0.007241174578666687, -0.006823080591857433, -0.006404987070709467, -0.0059868935495615005, -0.005568799562752247, -0.0051507060416042805, -0.004732612520456314, -0.004314518999308348, -0.0038964252453297377, -0.0034783314913511276, -0.0030602379702031612, -0.002642144449055195, -0.002224050695076585, -0.0018059569410979748, -0.0013878634199500084, -0.0009697697823867202, -0.000551676144823432, -0.00013358250726014376, 0.00028451113030314445, 0.0007026046514511108, 0.0011206984054297209, 0.001538792159408331, 0.001956886611878872, 0.0023749801330268383, 0.0027930738870054483, 0.0032111676409840584, 0.0036292611621320248, 0.004047354683279991, 0.004465448670089245, 0.004883542191237211, 0.005301635712385178, 0.005719729233533144, 0.00613782275468111, 0.006555916741490364, 0.0069740102626383305, 0.007392103783786297, 0.0078101977705955505, 0.00822829082608223, 0.008646384812891483, 0.009064478799700737, 0.009482571855187416, 0.00990066584199667, 0.010318759828805923, 0.010736852884292603, 0.011154946871101856, 0.01157304085791111, 0.011991133913397789, 0.012409227900207043, 0.012827320955693722, 0.013245414942502975, 0.013663507997989655, 0.014081601984798908, 0.014499695971608162, 0.014917789027094841, 0.015335883013904095]}, "gradients/MSM.conv_7.1.bias": {"_type": "histogram", "values": [11.0, 0.0, 0.0, 0.0, 0.0, 0.0, 0.0, 0.0, 0.0, 0.0, 0.0, 0.0, 0.0, 0.0, 0.0, 0.0, 0.0, 0.0, 0.0, 0.0, 0.0, 0.0, 0.0, 0.0, 0.0, 0.0, 0.0, 0.0, 0.0, 0.0, 0.0, 0.0, 0.0, 0.0, 0.0, 0.0, 0.0, 0.0, 0.0, 0.0, 0.0, 0.0, 0.0, 0.0, 0.0, 0.0, 0.0, 0.0, 0.0, 0.0, 0.0, 0.0, 0.0, 0.0, 0.0, 0.0, 0.0, 0.0, 0.0, 0.0, 0.0, 0.0, 0.0, 1.0], "bins": [-3.5390257835388184e-08, 1.0726460459409282e-05, 2.148831117665395e-05, 3.225016189389862e-05, 4.301201261114329e-05, 5.377386332838796e-05, 6.453571404563263e-05, 7.52975611248985e-05, 8.605941548012197e-05, 9.682126983534545e-05, 0.00010758311691461131, 0.00011834496399387717, 0.00012910681834910065, 0.00013986867270432413, 0.00015063051250763237, 0.00016139236686285585, 0.00017215422121807933, 0.0001829160755733028, 0.00019367792992852628, 0.00020443976973183453, 0.000215201624087058, 0.00022596347844228148, 0.00023672531824558973, 0.000247487158048898, 0.0002582490269560367, 0.00026901086675934494, 0.00027977273566648364, 0.0002905345754697919, 0.00030129641527310014, 0.00031205828418023884, 0.0003228201239835471, 0.0003335819928906858, 0.00034434383269399405, 0.0003551056724973023, 0.000365867541404441, 0.00037662938120774925, 0.00038739125011488795, 0.0003981530899181962, 0.00040891492972150445, 0.0004196767695248127, 0.0004304386384319514, 0.00044120047823525965, 0.00045196234714239836, 0.0004627241869457066, 0.00047348602674901485, 0.00048424789565615356, 0.0004950097645632923, 0.0005057716043666005, 0.0005165334441699088, 0.000527295283973217, 0.0005380571237765253, 0.0005488190217874944, 0.0005595808615908027, 0.0005703427013941109, 0.0005811045411974192, 0.0005918663810007274, 0.0006026282208040357, 0.0006133900606073439, 0.0006241519004106522, 0.0006349137984216213, 0.0006456756382249296, 0.0006564374780282378, 0.0006671993178315461, 0.0006779611576348543, 0.0006887230556458235]}, "gradients/MSM.conv_5.3.weight": {"_type": "histogram", "values": [1.0, 0.0, 0.0, 0.0, 0.0, 0.0, 0.0, 0.0, 0.0, 0.0, 0.0, 0.0, 0.0, 0.0, 0.0, 0.0, 0.0, 0.0, 0.0, 0.0, 0.0, 0.0, 0.0, 0.0, 0.0, 0.0, 0.0, 0.0, 0.0, 0.0, 0.0, 0.0, 0.0, 0.0, 0.0, 0.0, 0.0, 0.0, 0.0, 0.0, 0.0, 0.0, 0.0, 0.0, 0.0, 0.0, 0.0, 2.0, 1.0, 0.0, 0.0, 0.0, 0.0, 0.0, 0.0, 1.0, 0.0, 0.0, 0.0, 0.0, 6.0, 0.0, 0.0, 1.0], "bins": [-0.0056561375968158245, -0.005563381128013134, -0.005470624193549156, -0.005377867259085178, -0.005285110790282488, -0.005192354321479797, -0.0050995973870158195, -0.005006840452551842, -0.004914083983749151, -0.004821327514946461, -0.004728570580482483, -0.004635813646018505, -0.004543057177215815, -0.004450300708413124, -0.004357543773949146, -0.0042647868394851685, -0.004172030370682478, -0.0040792739018797874, -0.00398651696741581, -0.0038937602657824755, -0.0038010035641491413, -0.003708246862515807, -0.003615490160882473, -0.003522733459249139, -0.0034299767576158047, -0.0033372200559824705, -0.0032444633543491364, -0.003151706652715802, -0.003058949951082468, -0.002966193249449134, -0.0028734365478157997, -0.0027806798461824656, -0.002687923377379775, -0.002595166675746441, -0.0025024099741131067, -0.0024096532724797726, -0.0023168965708464384, -0.0022241398692131042, -0.00213138316757977, -0.002038626465946436, -0.0019458697643131018, -0.0018531130626797676, -0.0017603563610464334, -0.0016675996594130993, -0.0015748429577797651, -0.001482086256146431, -0.0013893295545130968, -0.0012965728528797626, -0.0012038161512464285, -0.0011110594496130943, -0.0010183027479797602, -0.000925546046346426, -0.0008327893447130919, -0.0007400326430797577, -0.0006472759414464235, -0.0005545192398130894, -0.00046176250907592475, -0.0003690058074425906, -0.00027624910580925643, -0.00018349240417592227, -9.073570254258811e-05, 2.020999090746045e-06, 9.47777007240802e-05, 0.00018753440235741436, 0.0002802911039907485]}, "gradients/MSM.conv_5.3.bias": {"_type": "histogram", "values": [1.0, 0.0, 0.0, 0.0, 0.0, 0.0, 0.0, 0.0, 0.0, 1.0, 0.0, 0.0, 0.0, 0.0, 0.0, 0.0, 0.0, 1.0, 0.0, 1.0, 0.0, 0.0, 0.0, 0.0, 0.0, 2.0, 0.0, 0.0, 1.0, 0.0, 0.0, 1.0, 0.0, 0.0, 0.0, 0.0, 0.0, 1.0, 0.0, 0.0, 1.0, 0.0, 0.0, 1.0, 0.0, 0.0, 0.0, 0.0, 0.0, 0.0, 0.0, 0.0, 0.0, 0.0, 0.0, 0.0, 0.0, 0.0, 0.0, 0.0, 0.0, 0.0, 0.0, 1.0], "bins": [-0.0016228428576141596, -0.0015566478250548244, -0.0014904527924954891, -0.0014242577599361539, -0.0013580627273768187, -0.0012918678112328053, -0.00122567277867347, -0.0011594777461141348, -0.0010932827135547996, -0.0010270876809954643, -0.0009608926484361291, -0.0008946976740844548, -0.0008285026415251195, -0.0007623076089657843, -0.00069611263461411, -0.0006299176020547748, -0.0005637225694954395, -0.0004975275369361043, -0.0004313325334805995, -0.00036513753002509475, -0.0002989424974657595, -0.00023274746490642428, -0.0001665524614509195, -0.00010035745799541473, -3.41624254360795e-05, 3.20325925713405e-05, 9.82276105787605e-05, 0.0001644226285861805, 0.0002306176465936005, 0.00029681267915293574, 0.0003630076826084405, 0.0004292026860639453, 0.0004953979514539242, 0.0005615929840132594, 0.0006277880165725946, 0.000693982990924269, 0.0007601780234836042, 0.0008263730560429394, 0.0008925680303946137, 0.000958763062953949, 0.0010249580955132842, 0.0010911531280726194, 0.0011573481606319547, 0.00122354319319129, 0.0012897381093353033, 0.0013559332583099604, 0.0014221281744539738, 0.001488323207013309, 0.0015545182395726442, 0.0016207132721319795, 0.0016869083046913147, 0.00175310333725065, 0.0018192983698099852, 0.0018854932859539986, 0.0019516883185133338, 0.002017883351072669, 0.0020840782672166824, 0.002150273183360696, 0.002216468332335353, 0.0022826632484793663, 0.0023488583974540234, 0.0024150533135980368, 0.002481248462572694, 0.0025474433787167072, 0.0026136385276913643]}, "gradients/MSM.conv_5.1.weight": {"_type": "histogram", "values": [1.0, 0.0, 1.0, 0.0, 0.0, 0.0, 0.0, 0.0, 0.0, 0.0, 0.0, 0.0, 0.0, 0.0, 2.0, 0.0, 1.0, 0.0, 0.0, 0.0, 1.0, 1.0, 0.0, 1.0, 1.0, 2.0, 2.0, 0.0, 1.0, 2.0, 1.0, 2.0, 1.0, 0.0, 1.0, 2.0, 3.0, 64.0, 4.0, 5.0, 4.0, 1.0, 2.0, 2.0, 1.0, 2.0, 0.0, 0.0, 2.0, 1.0, 1.0, 1.0, 0.0, 0.0, 0.0, 1.0, 0.0, 1.0, 1.0, 0.0, 0.0, 0.0, 0.0, 1.0], "bins": [-0.009050052613019943, -0.008809350430965424, -0.008568648248910904, -0.008327946066856384, -0.00808724295347929, -0.00784654077142477, -0.007605838589370251, -0.007365136407315731, -0.007124434225261211, -0.006883732043206692, -0.006643029395490885, -0.006402327213436365, -0.0061616250313818455, -0.0059209223836660385, -0.005680220201611519, -0.005439518019556999, -0.005198815371841192, -0.004958113189786673, -0.004717410542070866, -0.004476708360016346, -0.004236006177961826, -0.003995303995907307, -0.0037546013481914997, -0.00351389916613698, -0.0032731967512518167, -0.0030324943363666534, -0.002791792154312134, -0.0025510897394269705, -0.002310387324541807, -0.0020696851424872875, -0.0018289827276021242, -0.0015882804291322827, -0.0013475781306624413, -0.0011068758321925998, -0.0008661734755150974, -0.000625471118837595, -0.0003847688203677535, -0.00014406652189791203, 9.663589298725128e-05, 0.00033733819145709276, 0.0005780404899269342, 0.0008187427883967757, 0.0010594450868666172, 0.0013001475017517805, 0.001540849800221622, 0.0017815520986914635, 0.0020222545135766268, 0.00226295692846179, 0.0025036591105163097, 0.002744361525401473, 0.0029850637074559927, 0.003225766122341156, 0.0034664683043956757, 0.003707170719280839, 0.003947873134166002, 0.004188575316220522, 0.004429277963936329, 0.0046699801459908485, 0.0049106827937066555, 0.005151384975761175, 0.005392087157815695, 0.005632789805531502, 0.005873491987586021, 0.006114194169640541, 0.006354896351695061]}, "gradients/MSM.conv_5.1.bias": {"_type": "histogram", "values": [1.0, 0.0, 0.0, 0.0, 0.0, 0.0, 0.0, 0.0, 0.0, 0.0, 0.0, 0.0, 0.0, 0.0, 0.0, 0.0, 0.0, 0.0, 0.0, 0.0, 0.0, 0.0, 0.0, 0.0, 0.0, 0.0, 0.0, 0.0, 0.0, 0.0, 0.0, 0.0, 0.0, 0.0, 0.0, 0.0, 0.0, 0.0, 0.0, 0.0, 0.0, 0.0, 0.0, 0.0, 9.0, 0.0, 0.0, 1.0, 0.0, 0.0, 0.0, 0.0, 0.0, 0.0, 0.0, 0.0, 0.0, 0.0, 0.0, 0.0, 0.0, 0.0, 0.0, 1.0], "bins": [-0.008474295027554035, -0.00828288123011589, -0.008091466501355171, -0.007900052703917027, -0.0077086384408175945, -0.0075172241777181625, -0.0073258099146187305, -0.0071343956515192986, -0.006942981854081154, -0.006751567590981722, -0.00656015332788229, -0.006368739530444145, -0.006177325267344713, -0.005985911004245281, -0.005794496741145849, -0.005603082478046417, -0.0054116686806082726, -0.0052202544175088406, -0.005028840154409409, -0.004837426356971264, -0.004646012093871832, -0.0044545978307724, -0.004263183567672968, -0.004071769304573536, -0.003880355041474104, -0.003688940778374672, -0.0034975267481058836, -0.0033061124850064516, -0.0031146984547376633, -0.0029232841916382313, -0.0027318699285387993, -0.002540455898270011, -0.0023490418680012226, -0.0021576276049017906, -0.0019662135746330023, -0.0017747993115335703, -0.001583385281264782, -0.00139197101816535, -0.0012005568714812398, -0.0010091427247971296, -0.0008177285781130195, -0.0006263144314289093, -0.0004349002556409687, -0.00024348607985302806, -5.2071933168917894e-05, 0.00013934221351519227, 0.00033075641840696335, 0.0005221705650910735, 0.0007135847117751837, 0.0009049988584592938, 0.001096413005143404, 0.001287827268242836, 0.0014792412985116243, 0.0016706555616110563, 0.0018620697082951665, 0.0020534838549792767, 0.0022448981180787086, 0.0024363123811781406, 0.002627726411446929, 0.002819140674546361, 0.0030105547048151493, 0.0032019689679145813, 0.0033933832310140133, 0.0035847972612828016, 0.00377621129155159]}, "gradients/MSM.conv_3.3.weight": {"_type": "histogram", "values": [1.0, 0.0, 0.0, 0.0, 0.0, 0.0, 0.0, 0.0, 0.0, 0.0, 0.0, 0.0, 0.0, 0.0, 0.0, 0.0, 0.0, 0.0, 0.0, 1.0, 0.0, 0.0, 0.0, 0.0, 1.0, 1.0, 0.0, 0.0, 0.0, 0.0, 0.0, 0.0, 0.0, 0.0, 0.0, 0.0, 0.0, 0.0, 0.0, 5.0, 0.0, 0.0, 0.0, 0.0, 0.0, 0.0, 0.0, 0.0, 0.0, 0.0, 0.0, 1.0, 0.0, 1.0, 0.0, 0.0, 0.0, 0.0, 0.0, 0.0, 0.0, 0.0, 0.0, 1.0], "bins": [-0.005233412608504295, -0.0050994884222745895, -0.004965564236044884, -0.004831640049815178, -0.004697715863585472, -0.004563791677355766, -0.0044298674911260605, -0.004295943304896355, -0.004162019118666649, -0.004028094932436943, -0.0038941707462072372, -0.0037602465599775314, -0.0036263223737478256, -0.00349239818751812, -0.0033584737684577703, -0.0032245495822280645, -0.003090625163167715, -0.0029567009769380093, -0.0028227767907083035, -0.0026888526044785976, -0.002554928418248892, -0.002421004232019186, -0.0022870798129588366, -0.0021531556267291307, -0.002019231440499425, -0.0018853072542697191, -0.0017513830680400133, -0.0016174587653949857, -0.0014835345791652799, -0.001349610392935574, -0.0012156860902905464, -0.0010817619040608406, -0.0009478374850004911, -0.0008139132987707853, -0.0006799890543334186, -0.0005460648098960519, -0.0004121406236663461, -0.00027821643743664026, -0.00014429219299927354, -1.0367948561906815e-05, 0.000123556237667799, 0.00025748045300133526, 0.00039140466833487153, 0.0005253289127722383, 0.0006592530990019441, 0.0007931772852316499, 0.0009271015296690166, 0.0010610257741063833, 0.0011949499603360891, 0.001328874146565795, 0.0014627983327955008, 0.0015967226354405284, 0.0017306468216702342, 0.00186457100789994, 0.0019984953105449677, 0.0021324194967746735, 0.0022663436830043793, 0.002400267869234085, 0.002534192055463791, 0.0026681162416934967, 0.0028020404279232025, 0.0029359646141529083, 0.003069889033213258, 0.0032038132194429636, 0.0033377374056726694]}, "gradients/MSM.conv_3.3.bias": {"_type": "histogram", "values": [1.0, 0.0, 0.0, 0.0, 0.0, 0.0, 0.0, 0.0, 0.0, 1.0, 0.0, 0.0, 0.0, 0.0, 1.0, 0.0, 0.0, 0.0, 0.0, 1.0, 1.0, 1.0, 0.0, 0.0, 0.0, 0.0, 1.0, 0.0, 0.0, 0.0, 0.0, 0.0, 0.0, 0.0, 0.0, 0.0, 0.0, 0.0, 0.0, 0.0, 0.0, 0.0, 0.0, 0.0, 1.0, 0.0, 1.0, 0.0, 0.0, 0.0, 0.0, 0.0, 0.0, 0.0, 0.0, 0.0, 1.0, 0.0, 0.0, 1.0, 0.0, 0.0, 0.0, 1.0], "bins": [-0.002291268203407526, -0.002223209012299776, -0.002155149821192026, -0.002087090630084276, -0.0020190314389765263, -0.0019509722478687763, -0.0018829130567610264, -0.0018148538656532764, -0.0017467946745455265, -0.0016787354834377766, -0.0016106762923300266, -0.0015426171012222767, -0.0014745579101145267, -0.0014064987190067768, -0.0013384395278990269, -0.001270380336791277, -0.001202321145683527, -0.001134261954575777, -0.0010662027634680271, -0.0009981435723602772, -0.0009300843812525272, -0.0008620251901447773, -0.0007939659990370274, -0.0007259068079292774, -0.0006578476168215275, -0.0005897884257137775, -0.0005217292346060276, -0.00045367004349827766, -0.0003856108523905277, -0.0003175516612827778, -0.00024949247017502785, -0.0001814332790672779, -0.00011337385512888432, -4.5314664021134377e-05, 2.2744527086615562e-05, 9.08037181943655e-05, 0.00015886290930211544, 0.00022692210040986538, 0.0002949812915176153, 0.00036304048262536526, 0.0004310996737331152, 0.0004991588648408651, 0.0005672180559486151, 0.000635277247056365, 0.000703336438164115, 0.0007713956292718649, 0.0008394548203796148, 0.0009075140114873648, 0.0009755732025951147, 0.0010436323937028646, 0.0011116915848106146, 0.0011797507759183645, 0.0012478099670261145, 0.0013158691581338644, 0.0013839283492416143, 0.0014519875403493643, 0.0015200467314571142, 0.0015881059225648642, 0.001656165113672614, 0.001724224304780364, 0.001792283495888114, 0.001860342686995864, 0.0019284018781036139, 0.001996461069211364, 0.0020645202603191137]}, "gradients/MSM.conv_3.1.weight": {"_type": "histogram", "values": [1.0, 0.0, 0.0, 0.0, 0.0, 0.0, 0.0, 0.0, 0.0, 0.0, 0.0, 1.0, 0.0, 1.0, 0.0, 0.0, 0.0, 0.0, 0.0, 2.0, 1.0, 0.0, 0.0, 0.0, 0.0, 1.0, 2.0, 2.0, 2.0, 1.0, 2.0, 1.0, 4.0, 35.0, 1.0, 1.0, 2.0, 4.0, 0.0, 0.0, 0.0, 0.0, 1.0, 0.0, 2.0, 0.0, 0.0, 1.0, 0.0, 0.0, 2.0, 0.0, 0.0, 0.0, 0.0, 0.0, 0.0, 0.0, 1.0, 0.0, 0.0, 0.0, 0.0, 1.0], "bins": [-0.007367859128862619, -0.007150460034608841, -0.006933060474693775, -0.006715660914778709, -0.006498261820524931, -0.0062808627262711525, -0.006063463166356087, -0.005846063606441021, -0.0056286645121872425, -0.005411265417933464, -0.005193865858018398, -0.0049764662981033325, -0.004759067203849554, -0.004541668109595776, -0.00432426854968071, -0.004106868989765644, -0.0038894698955118656, -0.0036720705684274435, -0.0034546712413430214, -0.0032372719142585993, -0.003019872587174177, -0.002802473260089755, -0.002585073933005333, -0.002367674605920911, -0.0021502752788364887, -0.0019328759517520666, -0.0017154766246676445, -0.0014980772975832224, -0.0012806779704988003, -0.0010632786434143782, -0.0008458793163299561, -0.0006284799892455339, -0.0004110801964998245, -0.0001936808694154024, 2.37184576690197e-05, 0.0002411177847534418, 0.0004585171118378639, 0.000675916438922286, 0.0008933157660067081, 0.0011107150930911303, 0.0013281144201755524, 0.0015455137472599745, 0.0017629130743443966, 0.0019803124014288187, 0.002197711728513241, 0.002415111055597663, 0.002632510382682085, 0.002849909709766507, 0.0030673090368509293, 0.0032847083639353514, 0.0035021076910197735, 0.0037195070181041956, 0.003936906345188618, 0.0041543059051036835, 0.004371704999357462, 0.00458910409361124, 0.004806503653526306, 0.005023903213441372, 0.00524130230769515, 0.005458701401948929, 0.005676100961863995, 0.00589350052177906, 0.006110899616032839, 0.006328298710286617, 0.006545698270201683]}, "gradients/MSM.conv_3.1.bias": {"_type": "histogram", "values": [1.0, 0.0, 0.0, 0.0, 0.0, 0.0, 0.0, 0.0, 0.0, 0.0, 0.0, 0.0, 0.0, 0.0, 0.0, 0.0, 0.0, 0.0, 0.0, 0.0, 0.0, 0.0, 0.0, 0.0, 8.0, 0.0, 0.0, 0.0, 0.0, 0.0, 0.0, 0.0, 0.0, 0.0, 0.0, 1.0, 0.0, 0.0, 0.0, 0.0, 0.0, 0.0, 0.0, 0.0, 0.0, 1.0, 0.0, 0.0, 0.0, 0.0, 0.0, 0.0, 0.0, 0.0, 0.0, 0.0, 0.0, 0.0, 0.0, 0.0, 0.0, 0.0, 0.0, 1.0], "bins": [-0.01279991865158081, -0.012280471622943878, -0.011761024594306946, -0.011241577565670013, -0.010722130537033081, -0.010202683508396149, -0.009683237411081791, -0.009163790382444859, -0.008644343353807926, -0.008124896325170994, -0.007605449296534061, -0.007086002733558416, -0.006566555704921484, -0.006047108676284552, -0.0055276621133089066, -0.005008215084671974, -0.004488768056035042, -0.0039693210273981094, -0.0034498742315918207, -0.002930427435785532, -0.0024109804071485996, -0.0018915333785116673, -0.0013720865827053785, -0.0008526397868990898, -0.00033319275826215744, 0.0001862541539594531, 0.0007057010661810637, 0.0012251479784026742, 0.0017445948906242847, 0.002264041919261217, 0.002783488715067506, 0.0033029355108737946, 0.003822382539510727, 0.004341829568147659, 0.004861276596784592, 0.005380723159760237, 0.005900170188397169, 0.0064196172170341015, 0.0069390637800097466, 0.007458510808646679, 0.007977957837283611, 0.008497404865920544, 0.009016851894557476, 0.009536298923194408, 0.010055745020508766, 0.010575192049145699, 0.011094639077782631, 0.011614086106419563, 0.012133533135056496, 0.012652980163693428, 0.01317242719233036, 0.013691874220967293, 0.014211321249604225, 0.014730768278241158, 0.015250214375555515, 0.015769660472869873, 0.016289107501506805, 0.016808554530143738, 0.01732800155878067, 0.017847448587417603, 0.018366895616054535, 0.018886342644691467, 0.0194057896733284, 0.019925236701965332, 0.020444683730602264]}, "gradients/ACM.Im.mlp.2.bias": {"_type": "histogram", "values": [1.0, 0.0, 2.0, 1.0, 0.0, 1.0, 1.0, 0.0, 0.0, 0.0, 2.0, 0.0, 1.0, 1.0, 2.0, 1.0, 0.0, 0.0, 1.0, 6.0, 8.0, 5.0, 12.0, 11.0, 7.0, 14.0, 8.0, 4.0, 7.0, 10.0, 2.0, 4.0, 6.0, 1.0, 0.0, 0.0, 2.0, 0.0, 1.0, 0.0, 0.0, 0.0, 1.0, 0.0, 3.0, 0.0, 0.0, 0.0, 0.0, 0.0, 0.0, 0.0, 0.0, 0.0, 0.0, 0.0, 1.0, 0.0, 0.0, 0.0, 0.0, 0.0, 0.0, 1.0], "bins": [-0.0051554301753640175, -0.004959125071763992, -0.00476281950250268, -0.004566514398902655, -0.004370208829641342, -0.004173903726041317, -0.003977598622441292, -0.0037812930531799793, -0.0035849877167493105, -0.0033886823803186417, -0.003192377043887973, -0.002996071707457304, -0.002799766603857279, -0.0026034610345959663, -0.002407155930995941, -0.0022108505945652723, -0.0020145452581346035, -0.0018182399217039347, -0.0016219345852732658, -0.0014256293652579188, -0.00122932402882725, -0.0010330186923965812, -0.0008367134723812342, -0.0006404081359505653, -0.0004441027995198965, -0.00024779749219305813, -5.149218486621976e-05, 0.00014481309335678816, 0.000341118429787457, 0.0005374237662181258, 0.0007337289862334728, 0.0009300343226641417, 0.0011263391934335232, 0.001322644529864192, 0.0015189498662948608, 0.0017152550863102078, 0.0019115604227408767, 0.0021078656427562237, 0.0023041709791868925, 0.0025004763156175613, 0.00269678165204823, 0.002893086988478899, 0.003089392324909568, 0.0032856976613402367, 0.003482002764940262, 0.0036783083342015743, 0.0038746134378015995, 0.004070919007062912, 0.004267224110662937, 0.004463529214262962, 0.004659834783524275, 0.0048561398871243, 0.0050524454563856125, 0.005248750559985638, 0.005445055663585663, 0.005641361232846975, 0.005837666802108288, 0.006033971905708313, 0.0062302774749696255, 0.006426582578569651, 0.006622888147830963, 0.006819193251430988, 0.0070154983550310135, 0.007211803924292326, 0.007408109027892351]}, "gradients/ACM.Im.mlp.2.weight": {"_type": "histogram", "values": [1.0, 0.0, 0.0, 0.0, 0.0, 0.0, 0.0, 0.0, 0.0, 0.0, 0.0, 0.0, 1.0, 0.0, 0.0, 0.0, 1.0, 1.0, 1.0, 2.0, 2.0, 0.0, 3.0, 2.0, 1.0, 0.0, 4.0, 0.0, 0.0, 2.0, 2.0, 2.0, 6.0, 3.0, 3.0, 2.0, 3.0, 3.0, 5.0, 2.0, 9.0, 5.0, 7.0, 6.0, 10.0, 4.0, 10.0, 11.0, 13.0, 14.0, 43.0, 3266.0, 479.0, 56.0, 35.0, 26.0, 19.0, 14.0, 4.0, 4.0, 4.0, 2.0, 2.0, 1.0], "bins": [-0.057685475796461105, -0.056574705988168716, -0.05546393245458603, -0.05435316264629364, -0.05324239283800125, -0.052131619304418564, -0.051020849496126175, -0.04991007596254349, -0.0487993061542511, -0.04768853634595871, -0.04657776281237602, -0.04546699300408363, -0.044356219470500946, -0.04324544966220856, -0.04213467985391617, -0.04102390632033348, -0.03991313651204109, -0.0388023667037487, -0.037691593170166016, -0.03658082336187363, -0.03547005355358124, -0.03435928001999855, -0.03324851021170616, -0.032137736678123474, -0.031026966869831085, -0.029916195198893547, -0.02880542352795601, -0.02769465371966362, -0.026583882048726082, -0.025473110377788544, -0.024362340569496155, -0.023251568898558617, -0.02214079722762108, -0.02103002555668354, -0.019919253885746002, -0.018808484077453613, -0.017697712406516075, -0.016586940735578537, -0.015476169995963573, -0.01436539925634861, -0.013254628516733646, -0.012143857777118683, -0.011033086106181145, -0.009922314435243607, -0.008811543695628643, -0.007700772490352392, -0.006590001285076141, -0.0054792300797998905, -0.00436845887452364, -0.003257687669247389, -0.002146916463971138, -0.0010361452586948872, 7.462594658136368e-05, 0.0011853971518576145, 0.0022961683571338654, 0.003406939562410116, 0.004517710767686367, 0.005628481972962618, 0.006739253178238869, 0.007850024849176407, 0.00896079558879137, 0.010071566328406334, 0.011182337999343872, 0.01229310967028141, 0.013403880409896374]}, "gradients/ACM.Im.mlp.0.bias": {"_type": "histogram", "values": [1.0, 0.0, 0.0, 0.0, 0.0, 0.0, 0.0, 0.0, 0.0, 0.0, 0.0, 0.0, 0.0, 0.0, 0.0, 0.0, 0.0, 0.0, 0.0, 0.0, 0.0, 0.0, 0.0, 0.0, 0.0, 0.0, 0.0, 0.0, 0.0, 0.0, 0.0, 0.0, 0.0, 1.0, 0.0, 0.0, 0.0, 0.0, 0.0, 0.0, 0.0, 0.0, 0.0, 0.0, 0.0, 0.0, 0.0, 1.0, 1.0, 0.0, 0.0, 0.0, 1.0, 2.0, 1.0, 4.0, 4.0, 11.0, 1.0, 0.0, 2.0, 1.0, 0.0, 1.0], "bins": [-0.02270374447107315, -0.02230682596564293, -0.02190990559756756, -0.021512987092137337, -0.021116068586707115, -0.020719148218631744, -0.020322229713201523, -0.0199253112077713, -0.01952839083969593, -0.01913147233426571, -0.018734551966190338, -0.018337633460760117, -0.017940714955329895, -0.017543794587254524, -0.017146876081824303, -0.016749955713748932, -0.01635303720831871, -0.01595611870288849, -0.015559199266135693, -0.015162279829382896, -0.0147653603926301, -0.014368440955877304, -0.013971522450447083, -0.013574603013694286, -0.013177684508264065, -0.012780765071511269, -0.012383846566081047, -0.011986927129328251, -0.011590007692575455, -0.011193089187145233, -0.010796169750392437, -0.01039925031363964, -0.010002330876886845, -0.009605411440134048, -0.009208492934703827, -0.00881157349795103, -0.008414654061198235, -0.008017735555768013, -0.007620816119015217, -0.007223896682262421, -0.0068269772455096245, -0.006430058274418116, -0.0060331388376653194, -0.005636219866573811, -0.005239300429821014, -0.0048423814587295055, -0.004445462487637997, -0.0040485430508852005, -0.0036516240797936916, -0.003254704875871539, -0.0028577856719493866, -0.0024608667008578777, -0.0020639472641050816, -0.0016670282930135727, -0.0012701090890914202, -0.0008731898851692677, -0.00047627068124711514, -7.935150642879307e-05, 0.000317567668389529, 0.0007144868141040206, 0.0011114060180261731, 0.0015083251055330038, 0.0019052443094551563, 0.002302163513377309, 0.0026990827172994614]}, "gradients/ACM.Im.mlp.0.weight": {"_type": "histogram", "values": [1.0, 0.0, 1.0, 1.0, 1.0, 1.0, 1.0, 2.0, 2.0, 2.0, 2.0, 2.0, 8.0, 8.0, 7.0, 13.0, 23.0, 14.0, 24.0, 31.0, 37.0, 51.0, 66.0, 59.0, 103.0, 129.0, 156.0, 188.0, 229.0, 251.0, 298.0, 305.0, 369.0, 298.0, 251.0, 229.0, 188.0, 156.0, 129.0, 103.0, 59.0, 66.0, 51.0, 37.0, 31.0, 24.0, 14.0, 23.0, 13.0, 7.0, 8.0, 8.0, 2.0, 2.0, 2.0, 2.0, 2.0, 1.0, 1.0, 1.0, 1.0, 1.0, 0.0, 1.0], "bins": [-0.004820949863642454, -0.004670295398682356, -0.00451964046806097, -0.004368986003100872, -0.0042183310724794865, -0.004067676607519388, -0.003917021676898003, -0.0037663672119379044, -0.003615712281316519, -0.003465057583525777, -0.003314402885735035, -0.003163748187944293, -0.003013093490153551, -0.002862438792362809, -0.0027117840945720673, -0.002561129629611969, -0.002410474931821227, -0.002259820234030485, -0.0021091655362397432, -0.0019585108384490013, -0.0018078561406582594, -0.0016572014428675175, -0.0015065468614920974, -0.0013558921637013555, -0.0012052374659106135, -0.0010545827681198716, -0.0009039280703291297, -0.0007532734307460487, -0.0006026187329553068, -0.00045196403516456485, -0.00030130939558148384, -0.00015065469779074192, 0.0, 0.0001506546832388267, 0.0003013093664776534, 0.00045196403516456485, 0.0006026187329553068, 0.0007532734307460487, 0.0009039280703291297, 0.0010545827681198716, 0.0012052374659106135, 0.0013558921637013555, 0.0015065468614920974, 0.0016572014428675175, 0.0018078561406582594, 0.0019585108384490013, 0.0021091655362397432, 0.002259820234030485, 0.002410474931821227, 0.002561129629611969, 0.002711784327402711, 0.002862439025193453, 0.0030130937229841948, 0.0031637484207749367, 0.003314402885735035, 0.0034650578163564205, 0.003615712281316519, 0.0037663669791072607, 0.003917021676898003, 0.004067676141858101, 0.0042183310724794865, 0.004368985537439585, 0.00451964046806097, 0.004670294933021069, 0.004820949863642454]}, "gradients/ACM.Re.mlp.2.bias": {"_type": "histogram", "values": [1.0, 0.0, 0.0, 0.0, 0.0, 0.0, 0.0, 2.0, 0.0, 0.0, 0.0, 2.0, 0.0, 0.0, 0.0, 0.0, 0.0, 1.0, 0.0, 0.0, 2.0, 0.0, 2.0, 3.0, 5.0, 4.0, 2.0, 5.0, 9.0, 12.0, 13.0, 9.0, 8.0, 9.0, 7.0, 3.0, 1.0, 2.0, 8.0, 3.0, 1.0, 2.0, 1.0, 1.0, 1.0, 0.0, 1.0, 2.0, 0.0, 2.0, 1.0, 0.0, 0.0, 1.0, 0.0, 0.0, 0.0, 0.0, 0.0, 0.0, 0.0, 0.0, 0.0, 2.0], "bins": [-0.004841510206460953, -0.0046826861798763275, -0.004523862153291702, -0.004365038126707077, -0.004206214100122452, -0.004047390539199114, -0.0038885665126144886, -0.0037297424860298634, -0.003570918459445238, -0.003412094432860613, -0.0032532704062759876, -0.003094446612522006, -0.002935622585937381, -0.0027767985593527555, -0.002617974765598774, -0.0024591507390141487, -0.0023003267124295235, -0.0021415026858448982, -0.001982678659260273, -0.0018238548655062914, -0.0016650308389216661, -0.001506206812337041, -0.0013473829021677375, -0.001188558991998434, -0.0010297349654138088, -0.0008709109970368445, -0.0007120870286598802, -0.0005532630602829158, -0.0003944390919059515, -0.00023561512352898717, -7.679115515202284e-05, 8.203275501728058e-05, 0.00024085678160190582, 0.00039968074997887015, 0.0005585047183558345, 0.0007173286867327988, 0.0008761526551097631, 0.0010349766816943884, 0.0011938005918636918, 0.0013526245020329952, 0.0015114485286176205, 0.0016702725552022457, 0.0018290964653715491, 0.0019879203755408525, 0.002146744402125478, 0.002305568428710103, 0.0024643922224640846, 0.00262321624904871, 0.002782040275633335, 0.0029408643022179604, 0.0030996883288025856, 0.003258512122556567, 0.0034173361491411924, 0.0035761601757258177, 0.0037349839694797993, 0.0038938079960644245, 0.00405263202264905, 0.004211456049233675, 0.0043702800758183, 0.0045291041024029255, 0.004687927663326263, 0.004846751689910889, 0.005005575716495514, 0.005164399743080139, 0.005323223769664764]}, "gradients/ACM.Re.mlp.2.weight": {"_type": "histogram", "values": [1.0, 0.0, 0.0, 0.0, 0.0, 0.0, 0.0, 0.0, 1.0, 6.0, 2.0, 1.0, 2.0, 0.0, 0.0, 3.0, 3.0, 4.0, 2.0, 5.0, 5.0, 10.0, 8.0, 12.0, 16.0, 22.0, 39.0, 2771.0, 1008.0, 62.0, 22.0, 11.0, 10.0, 6.0, 6.0, 7.0, 9.0, 7.0, 3.0, 5.0, 4.0, 2.0, 4.0, 1.0, 2.0, 2.0, 1.0, 1.0, 2.0, 1.0, 1.0, 2.0, 2.0, 0.0, 1.0, 0.0, 0.0, 0.0, 0.0, 0.0, 0.0, 0.0, 0.0, 1.0], "bins": [-0.02357495203614235, -0.022732829675078392, -0.021890705451369286, -0.02104858309030533, -0.02020646072924137, -0.019364338368177414, -0.018522214144468307, -0.01768009178340435, -0.016837969422340393, -0.015995847061276436, -0.015153723768889904, -0.014311600476503372, -0.013469478115439415, -0.012627354823052883, -0.011785231530666351, -0.010943109169602394, -0.010100984945893288, -0.009258861653506756, -0.008416739292442799, -0.007574616000056267, -0.006732493173331022, -0.005890370346605778, -0.005048247054219246, -0.004206124227494001, -0.003364001400768757, -0.0025218785740435123, -0.0016797555144876242, -0.000837632454931736, 4.49037179350853e-06, 0.000846613198518753, 0.0016887364909052849, 0.0025308593176305294, 0.003372984007000923, 0.004215106833726168, 0.005057229660451412, 0.005899352952837944, 0.0067414757795631886, 0.007583598606288433, 0.008425721898674965, 0.009267844259738922, 0.010109967552125454, 0.010952090844511986, 0.011794213205575943, 0.012636336497962475, 0.013478459790349007, 0.014320582151412964, 0.015162705443799496, 0.016004828736186028, 0.016846951097249985, 0.017689073458313942, 0.01853119768202305, 0.019373320043087006, 0.020215442404150963, 0.02105756476521492, 0.021899688988924026, 0.022741811349987984, 0.02358393371105194, 0.024426056072115898, 0.025268180295825005, 0.026110302656888962, 0.02695242501795292, 0.027794547379016876, 0.028636671602725983, 0.02947879396378994, 0.030320918187499046]}, "gradients/ACM.Re.mlp.0.bias": {"_type": "histogram", "values": [1.0, 0.0, 0.0, 0.0, 0.0, 0.0, 0.0, 0.0, 0.0, 0.0, 0.0, 0.0, 0.0, 0.0, 0.0, 0.0, 0.0, 1.0, 0.0, 0.0, 0.0, 0.0, 0.0, 0.0, 0.0, 0.0, 0.0, 0.0, 0.0, 0.0, 0.0, 0.0, 0.0, 0.0, 0.0, 0.0, 0.0, 0.0, 0.0, 0.0, 0.0, 0.0, 0.0, 0.0, 0.0, 0.0, 0.0, 1.0, 0.0, 2.0, 0.0, 0.0, 1.0, 0.0, 0.0, 0.0, 2.0, 0.0, 1.0, 0.0, 15.0, 5.0, 0.0, 3.0], "bins": [-0.014624658972024918, -0.014384438283741474, -0.01414421759545803, -0.013903996907174587, -0.013663776218891144, -0.013423554599285126, -0.013183334842324257, -0.012943113222718239, -0.012702892534434795, -0.012462671846151352, -0.012222451157867908, -0.011982230469584465, -0.011742009781301022, -0.011501789093017578, -0.01126156747341156, -0.011021346785128117, -0.010781126096844673, -0.01054090540856123, -0.010300684720277786, -0.010060464031994343, -0.0098202433437109, -0.009580021724104881, -0.009339801967144012, -0.009099580347537994, -0.008859360590577126, -0.008619139902293682, -0.008378919214010239, -0.008138698525726795, -0.007898477837443352, -0.007658256683498621, -0.0074180359952151775, -0.007177815306931734, -0.006937594618648291, -0.006697373930364847, -0.006457153242081404, -0.006216932088136673, -0.0059767113998532295, -0.005736490711569786, -0.005496270023286343, -0.005256049335002899, -0.005015828181058168, -0.004775607492774725, -0.0045353868044912815, -0.004295165650546551, -0.004054944962263107, -0.003814724273979664, -0.0035745035856962204, -0.003334282897412777, -0.0030940622091293335, -0.00285384152084589, -0.002613620599731803, -0.0023733999114483595, -0.0021331789903342724, -0.001892958302050829, -0.0016527376137673855, -0.0014125168090686202, -0.001172296004369855, -0.0009320751996710896, -0.0006918544531799853, -0.0004516337066888809, -0.00021141290199011564, 2.8807902708649635e-05, 0.0002690285909920931, 0.0005092493956908584, 0.0007494702585972846]}, "gradients/ACM.Re.mlp.0.weight": {"_type": "histogram", "values": [2.0, 0.0, 2.0, 0.0, 2.0, 1.0, 2.0, 2.0, 0.0, 0.0, 3.0, 2.0, 4.0, 2.0, 4.0, 7.0, 0.0, 14.0, 8.0, 10.0, 14.0, 9.0, 18.0, 21.0, 35.0, 37.0, 55.0, 92.0, 110.0, 200.0, 270.0, 353.0, 572.0, 594.0, 530.0, 374.0, 212.0, 156.0, 129.0, 61.0, 34.0, 24.0, 18.0, 11.0, 16.0, 22.0, 6.0, 12.0, 10.0, 0.0, 6.0, 4.0, 2.0, 4.0, 4.0, 4.0, 2.0, 2.0, 2.0, 0.0, 0.0, 0.0, 2.0, 4.0], "bins": [-0.006652659736573696, -0.0064531234093010426, -0.006253587082028389, -0.006054050754755735, -0.005854514427483082, -0.0056549785658717155, -0.005455442238599062, -0.005255905911326408, -0.005056369584053755, -0.004856833256781101, -0.004657296929508448, -0.004457760602235794, -0.004258224740624428, -0.004058687947690487, -0.0038591520860791206, -0.003659615758806467, -0.0034600794315338135, -0.00326054310426116, -0.0030610067769885063, -0.0028614706825464964, -0.002661934355273843, -0.0024623980280011892, -0.0022628619335591793, -0.0020633256062865257, -0.0018637892790138721, -0.0016642529517412186, -0.0014647167408838868, -0.001265180530026555, -0.0010656442027539015, -0.0008661078754812479, -0.0006665716646239161, -0.0004670354537665844, -0.0002674991264939308, -6.796285742893815e-05, 0.00013157341163605452, 0.0003311096807010472, 0.0005306459497660398, 0.0007301822770386934, 0.0009297184878960252, 0.001129254698753357, 0.0013287910260260105, 0.001528327353298664, 0.0017278635641559958, 0.0019273997750133276, 0.002126936102285981, 0.0023264724295586348, 0.0025260085240006447, 0.0027255448512732983, 0.002925081178545952, 0.0031246175058186054, 0.003324153833091259, 0.003523689927533269, 0.0037232262548059225, 0.0039227623492479324, 0.004122298676520586, 0.00432183500379324, 0.004521371331065893, 0.004720907658338547, 0.0049204439856112, 0.005119980312883854, 0.00531951617449522, 0.005519052967429161, 0.005718588829040527, 0.005918125156313181, 0.0061176614835858345]}, "Tr_loss": 0.5274655818939209, "Tr_acc": 0.7311947183098592, "Val_loss": 0.5609722101782927, "Val_acc": 0.7365338028169014, "Confusion_Matrix": [[0.7870905832237494, 0.014312768776941159, 0.10541894931380962, 0.09317769868549988], [0.1589181860348949, 0.7214114960573732, 0.05517893459877975, 0.06449138330895209], [0.1937514703325253, 0.012028598606891896, 0.686218253602954, 0.10800167745762886], [0.15863603390441136, 0.010637728151274823, 0.08651856612187867, 0.7442076718224352]], "_runtime": 149778.62336802483, "_step": 4, "_wandb": {"runtime": 149777}}