{"gradients/fc2.bias": {"_type": "histogram", "values": [1.0, 0.0, 0.0, 0.0, 0.0, 1.0, 0.0, 0.0, 0.0, 0.0, 0.0, 0.0, 0.0, 0.0, 0.0, 0.0, 0.0, 0.0, 0.0, 0.0, 0.0, 0.0, 0.0, 0.0, 0.0, 0.0, 0.0, 0.0, 0.0, 0.0, 0.0, 0.0, 0.0, 0.0, 0.0, 1.0, 0.0, 0.0, 0.0, 0.0, 0.0, 0.0, 0.0, 0.0, 0.0, 0.0, 0.0, 0.0, 0.0, 0.0, 0.0, 0.0, 0.0, 0.0, 0.0, 0.0, 0.0, 0.0, 0.0, 0.0, 0.0, 0.0, 0.0, 1.0], "bins": [-0.041699886322021484, -0.04011470824480057, -0.03852953016757965, -0.036944348365068436, -0.03535917028784752, -0.0337739922106266, -0.03218881040811539, -0.03060363233089447, -0.029018454253673553, -0.027433276176452637, -0.02584809623658657, -0.024262916296720505, -0.022677738219499588, -0.02109256014227867, -0.019507380202412605, -0.01792220026254654, -0.016337022185325623, -0.014751843176782131, -0.01316666416823864, -0.011581485159695148, -0.009996306151151657, -0.008411127142608166, -0.006825948134064674, -0.005240769125521183, -0.0036555901169776917, -0.0020704111084342003, -0.0004852320998907089, 0.0010999469086527824, 0.002685125917196274, 0.004270304925739765, 0.0058554839342832565, 0.007440662942826748, 0.00902584195137024, 0.01061102095991373, 0.012196199968457222, 0.013781378977000713, 0.015366557985544205, 0.01695173606276512, 0.018536916002631187, 0.020122095942497253, 0.02170727401971817, 0.023292452096939087, 0.024877632036805153, 0.02646281197667122, 0.028047990053892136, 0.029633168131113052, 0.03121834807097912, 0.032803528010845184, 0.0343887060880661, 0.03597388416528702, 0.037559062242507935, 0.03914424404501915, 0.040729422122240067, 0.04231460019946098, 0.0438997820019722, 0.045484960079193115, 0.04707013815641403, 0.04865531623363495, 0.050240494310855865, 0.05182567611336708, 0.053410854190588, 0.054996032267808914, 0.05658121407032013, 0.058166392147541046, 0.05975157022476196]}, "_timestamp": 1721028598.711867, "gradients/fc2.weight": {"_type": "histogram", "values": [2.0, 0.0, 0.0, 0.0, 0.0, 0.0, 0.0, 0.0, 0.0, 0.0, 0.0, 0.0, 1.0, 0.0, 1.0, 0.0, 1.0, 2.0, 0.0, 1.0, 0.0, 3.0, 0.0, 0.0, 1.0, 1.0, 1.0, 2.0, 2.0, 3.0, 2.0, 5.0, 3.0, 957.0, 7.0, 4.0, 5.0, 3.0, 3.0, 3.0, 0.0, 3.0, 0.0, 2.0, 0.0, 1.0, 0.0, 0.0, 0.0, 0.0, 0.0, 0.0, 0.0, 1.0, 0.0, 1.0, 0.0, 0.0, 0.0, 0.0, 0.0, 1.0, 1.0, 1.0], "bins": [-0.2236911952495575, -0.21694907546043396, -0.21020695567131042, -0.2034648358821869, -0.19672271609306335, -0.18998059630393982, -0.18323847651481628, -0.17649635672569275, -0.1697542369365692, -0.16301211714744568, -0.15626999735832214, -0.1495278775691986, -0.14278575778007507, -0.13604363799095154, -0.129301518201828, -0.12255939841270447, -0.11581727117300034, -0.1090751513838768, -0.10233303159475327, -0.09559091180562973, -0.0888487920165062, -0.08210666477680206, -0.07536454498767853, -0.06862242519855499, -0.061880309134721756, -0.05513818934559822, -0.048396069556474686, -0.04165394604206085, -0.03491182625293732, -0.028169706463813782, -0.021427586674690247, -0.014685466885566711, -0.007943347096443176, -0.0012012268416583538, 0.005540893413126469, 0.012283014133572578, 0.019025133922696114, 0.025767255574464798, 0.03250937536358833, 0.03925149515271187, 0.0459936149418354, 0.05273573473095894, 0.059477854520082474, 0.06621997803449631, 0.07296209782361984, 0.07970421761274338, 0.08644633740186691, 0.09318845719099045, 0.09993057698011398, 0.10667269676923752, 0.11341481655836105, 0.12015693634748459, 0.12689906358718872, 0.13364118337631226, 0.1403833031654358, 0.14712542295455933, 0.15386754274368286, 0.1606096625328064, 0.16735178232192993, 0.17409390211105347, 0.180836021900177, 0.18757814168930054, 0.19432026147842407, 0.2010623812675476, 0.20780450105667114]}, "gradients/fc1.bias": {"_type": "histogram", "values": [1.0, 0.0, 0.0, 0.0, 0.0, 0.0, 0.0, 2.0, 1.0, 0.0, 0.0, 0.0, 1.0, 0.0, 0.0, 1.0, 0.0, 0.0, 0.0, 0.0, 2.0, 0.0, 0.0, 1.0, 0.0, 0.0, 0.0, 0.0, 0.0, 0.0, 1.0, 0.0, 0.0, 2.0, 232.0, 0.0, 0.0, 1.0, 0.0, 0.0, 2.0, 0.0, 1.0, 2.0, 0.0, 1.0, 0.0, 0.0, 0.0, 0.0, 0.0, 0.0, 0.0, 1.0, 1.0, 0.0, 0.0, 0.0, 0.0, 1.0, 0.0, 0.0, 0.0, 2.0], "bins": [-0.007750057615339756, -0.007522933650761843, -0.007295810151845217, -0.0070686861872673035, -0.00684156222268939, -0.006614438258111477, -0.006387314759194851, -0.006160190794616938, -0.005933066830039024, -0.005705942865461111, -0.005478819366544485, -0.005251695401966572, -0.0050245714373886585, -0.004797447472810745, -0.004570323973894119, -0.004343200009316206, -0.00411607651039958, -0.0038889527786523104, -0.003661828814074397, -0.0034347050823271275, -0.003207581117749214, -0.0029804573860019445, -0.002753333654254675, -0.0025262096896767616, -0.002299085957929492, -0.0020719622261822224, -0.001844838261604309, -0.0016177145298570395, -0.001390590681694448, -0.0011634668335318565, -0.0009363431017845869, -0.0007092192536219954, -0.000482095405459404, -0.000254971586400643, -2.784776734188199e-05, 0.00019927602261304855, 0.00042639987077564, 0.0006535237189382315, 0.0008806474506855011, 0.0011077712988480926, 0.001334895147010684, 0.0015620189951732755, 0.001789142843335867, 0.0020162665750831366, 0.002243390306830406, 0.0024705142714083195, 0.002697638003155589, 0.0029247617349028587, 0.003151885699480772, 0.0033790094312280416, 0.003606133395805955, 0.0038332571275532246, 0.004060381092131138, 0.004287504591047764, 0.004514628555625677, 0.00474175252020359, 0.004968876019120216, 0.00519599998369813, 0.005423123482614756, 0.005650247447192669, 0.005877371411770582, 0.0061044953763484955, 0.0063316188752651215, 0.006558742839843035, 0.006785866804420948]}, "gradients/fc1.weight": {"_type": "histogram", "values": [1.0, 0.0, 0.0, 0.0, 1.0, 1.0, 2.0, 1.0, 1.0, 3.0, 7.0, 4.0, 9.0, 14.0, 11.0, 17.0, 21.0, 33.0, 41.0, 41.0, 83.0, 80.0, 141.0, 165.0, 202.0, 310.0, 393.0, 529.0, 753.0, 1094.0, 1576.0, 2538.0, 4859.0, 12650.0, 4055986.0, 6325.0, 3026.0, 1720.0, 1130.0, 712.0, 464.0, 305.0, 210.0, 149.0, 110.0, 61.0, 56.0, 32.0, 36.0, 21.0, 18.0, 15.0, 9.0, 11.0, 7.0, 3.0, 3.0, 4.0, 1.0, 3.0, 0.0, 0.0, 0.0, 2.0], "bins": [-0.01321335881948471, -0.012826665304601192, -0.012439971789717674, -0.012053278274834156, -0.011666584759950638, -0.01127989124506712, -0.010893197730183601, -0.010506505146622658, -0.010119810700416565, -0.009733117185533047, -0.009346423670649529, -0.00895973015576601, -0.008573036640882492, -0.008186343125998974, -0.007799650076776743, -0.007412956561893225, -0.007026263512670994, -0.006639569997787476, -0.006252876482903957, -0.005866182968020439, -0.005479489453136921, -0.005092795938253403, -0.004706102889031172, -0.004319409374147654, -0.003932715859264135, -0.003546022344380617, -0.003159328829497099, -0.0027726355474442244, -0.002385942032560706, -0.001999248517677188, -0.0016125552356243134, -0.0012258617207407951, -0.0008391672745347023, -0.000452473817858845, -6.578036118298769e-05, 0.0003209130372852087, 0.0007076065521687269, 0.0010943000670522451, 0.0014809933491051197, 0.001867686863988638, 0.002254380378872156, 0.0026410738937556744, 0.0030277674086391926, 0.003414460690692067, 0.0038011542055755854, 0.00418784748762846, 0.004574541002511978, 0.004961234517395496, 0.005347928032279015, 0.005734621547162533, 0.006121315062046051, 0.006508008576929569, 0.0068947020918130875, 0.007281395606696606, 0.007668088655918837, 0.008054781705141068, 0.00844147615134716, 0.008828169666230679, 0.009214863181114197, 0.009601556695997715, 0.009988250210881233, 0.010374943725764751, 0.01076163724064827, 0.011148329824209213, 0.011535023339092731]}, "gradients/conv2.weight": {"_type": "histogram", "values": [1.0, 0.0, 0.0, 0.0, 0.0, 0.0, 1.0, 1.0, 2.0, 1.0, 3.0, 3.0, 5.0, 2.0, 3.0, 5.0, 7.0, 6.0, 16.0, 18.0, 24.0, 32.0, 28.0, 30.0, 39.0, 36.0, 50.0, 58.0, 57.0, 47.0, 58.0, 116.0, 341.0, 968.0, 21542.0, 462.0, 135.0, 82.0, 41.0, 14.0, 27.0, 25.0, 28.0, 38.0, 43.0, 30.0, 31.0, 26.0, 11.0, 9.0, 14.0, 9.0, 10.0, 6.0, 6.0, 9.0, 0.0, 3.0, 5.0, 5.0, 1.0, 0.0, 4.0, 2.0], "bins": [-0.3036372661590576, -0.2948716878890991, -0.2861061096191406, -0.27734050154685974, -0.26857492327690125, -0.25980934500694275, -0.25104376673698425, -0.24227818846702576, -0.23351259529590607, -0.22474701702594757, -0.21598142385482788, -0.20721584558486938, -0.1984502673149109, -0.1896846741437912, -0.1809190958738327, -0.172153502702713, -0.16338792443275452, -0.15462234616279602, -0.14585675299167633, -0.13709117472171783, -0.12832558155059814, -0.11956000328063965, -0.11079442501068115, -0.10202883929014206, -0.09326325356960297, -0.08449766784906387, -0.07573208212852478, -0.06696650385856628, -0.05820091813802719, -0.0494353324174881, -0.040669750422239304, -0.03190416842699051, -0.02313855290412903, -0.014372969046235085, -0.005607385188341141, 0.003158198669552803, 0.011923782527446747, 0.02068936824798584, 0.029454950243234634, 0.03822053223848343, 0.04698611795902252, 0.055751703679561615, 0.06451728940010071, 0.0732828676700592, 0.0820484533905983, 0.09081403911113739, 0.09957961738109589, 0.10834520310163498, 0.11711078882217407, 0.12587636709213257, 0.13464196026325226, 0.14340753853321075, 0.15217313170433044, 0.16093870997428894, 0.16970428824424744, 0.17846986651420593, 0.18723545968532562, 0.19600103795528412, 0.2047666311264038, 0.2135322093963623, 0.2222977876663208, 0.2310633808374405, 0.239828959107399, 0.24859455227851868, 0.2573601305484772]}, "gradients/conv2.bias": {"_type": "histogram", "values": [1.0, 0.0, 0.0, 1.0, 0.0, 0.0, 0.0, 0.0, 0.0, 1.0, 0.0, 0.0, 0.0, 0.0, 1.0, 0.0, 0.0, 2.0, 0.0, 1.0, 1.0, 1.0, 7.0, 108.0, 0.0, 0.0, 0.0, 1.0, 0.0, 0.0, 0.0, 1.0, 0.0, 0.0, 0.0, 0.0, 0.0, 0.0, 0.0, 0.0, 0.0, 0.0, 1.0, 0.0, 0.0, 0.0, 0.0, 0.0, 0.0, 0.0, 0.0, 0.0, 0.0, 0.0, 0.0, 0.0, 0.0, 0.0, 0.0, 0.0, 0.0, 0.0, 0.0, 1.0], "bins": [-0.3556849956512451, -0.340579092502594, -0.3254731595516205, -0.31036725640296936, -0.29526135325431824, -0.2801554203033447, -0.2650495171546936, -0.24994361400604248, -0.23483769595623016, -0.21973177790641785, -0.20462587475776672, -0.1895199567079544, -0.1744140386581421, -0.15930813550949097, -0.14420221745967865, -0.12909629940986633, -0.11399039626121521, -0.09888448566198349, -0.08377857506275177, -0.06867265701293945, -0.05356674641370773, -0.03846083581447601, -0.023354917764663696, -0.008249007165431976, 0.006856903433799744, 0.021962815895676613, 0.03706872835755348, 0.0521746426820755, 0.06728055328130722, 0.08238646388053894, 0.09749238193035126, 0.11259829252958298, 0.1277042031288147, 0.14281012117862701, 0.15791602432727814, 0.17302194237709045, 0.18812784552574158, 0.2032337635755539, 0.2183396816253662, 0.23344558477401733, 0.24855150282382965, 0.26365742087364197, 0.2787633240222931, 0.2938692569732666, 0.3089751601219177, 0.32408106327056885, 0.33918696641921997, 0.3542928993701935, 0.3693988025188446, 0.3845047056674957, 0.39961063861846924, 0.41471654176712036, 0.4298224449157715, 0.4449283480644226, 0.4600342810153961, 0.47514018416404724, 0.49024611711502075, 0.5053520202636719, 0.520457923412323, 0.5355638265609741, 0.55066978931427, 0.5657756924629211, 0.5808815956115723, 0.5959874987602234, 0.6110934019088745]}, "gradients/conv1.weight": {"_type": "histogram", "values": [3.0, 1.0, 1.0, 2.0, 1.0, 0.0, 1.0, 5.0, 2.0, 6.0, 7.0, 7.0, 8.0, 9.0, 11.0, 9.0, 13.0, 22.0, 14.0, 16.0, 23.0, 22.0, 26.0, 22.0, 38.0, 36.0, 33.0, 44.0, 43.0, 47.0, 47.0, 36.0, 45.0, 39.0, 44.0, 24.0, 19.0, 18.0, 20.0, 17.0, 16.0, 15.0, 16.0, 10.0, 13.0, 10.0, 6.0, 6.0, 5.0, 3.0, 1.0, 4.0, 3.0, 2.0, 1.0, 1.0, 0.0, 0.0, 1.0, 1.0, 0.0, 0.0, 0.0, 1.0], "bins": [-0.06848836690187454, -0.066153883934021, -0.06381940841674805, -0.0614849254488945, -0.059150442481040955, -0.05681596323847771, -0.05448148399591446, -0.05214700102806091, -0.049812521785497665, -0.04747804254293442, -0.04514355957508087, -0.042809080332517624, -0.040474601089954376, -0.03814011812210083, -0.03580563887953758, -0.033471159636974335, -0.03113667666912079, -0.02880219556391239, -0.026467714458703995, -0.024133235216140747, -0.02179875411093235, -0.019464273005723953, -0.017129793763160706, -0.014795312657952309, -0.012460831552743912, -0.010126350447535515, -0.0077918702736496925, -0.005457389634102583, -0.0031229089945554733, -0.0007884278893470764, 0.0015460522845387459, 0.003880532458424568, 0.006215021014213562, 0.008549502119421959, 0.010883982293307781, 0.013218462467193604, 0.015552943572402, 0.017887424677610397, 0.020221903920173645, 0.022556385025382042, 0.02489086613059044, 0.027225347235798836, 0.029559828341007233, 0.03189430758357048, 0.03422878682613373, 0.036563269793987274, 0.03889774903655052, 0.04123222827911377, 0.043566711246967316, 0.04590119048953056, 0.04823567345738411, 0.05057015269994736, 0.0529046356678009, 0.05523911491036415, 0.0575735941529274, 0.059908077120780945, 0.06224255636334419, 0.06457703560590744, 0.06691151857376099, 0.06924600154161453, 0.07158047705888748, 0.07391496002674103, 0.07624944299459457, 0.07858391851186752, 0.08091840147972107]}, "gradients/conv1.bias": {"_type": "histogram", "values": [2.0, 0.0, 0.0, 0.0, 0.0, 0.0, 0.0, 0.0, 1.0, 0.0, 0.0, 1.0, 1.0, 1.0, 0.0, 1.0, 0.0, 0.0, 1.0, 0.0, 1.0, 0.0, 2.0, 1.0, 1.0, 5.0, 2.0, 0.0, 1.0, 0.0, 1.0, 2.0, 2.0, 2.0, 1.0, 1.0, 1.0, 2.0, 2.0, 2.0, 2.0, 0.0, 1.0, 1.0, 1.0, 1.0, 0.0, 0.0, 1.0, 0.0, 2.0, 2.0, 1.0, 2.0, 2.0, 1.0, 0.0, 2.0, 1.0, 2.0, 2.0, 1.0, 1.0, 1.0], "bins": [-0.42719608545303345, -0.4156072437763214, -0.4040184020996094, -0.39242956042289734, -0.3808407187461853, -0.36925187706947327, -0.35766303539276123, -0.3460741937160492, -0.33448535203933716, -0.3228965103626251, -0.3113076686859131, -0.29971882700920105, -0.288129985332489, -0.276541143655777, -0.26495230197906494, -0.2533634603023529, -0.24177461862564087, -0.23018577694892883, -0.2185969352722168, -0.20700809359550476, -0.19541925191879272, -0.1838304102420807, -0.17224156856536865, -0.16065272688865662, -0.14906388521194458, -0.13747504353523254, -0.1258862018585205, -0.11429736018180847, -0.10270851850509644, -0.0911196768283844, -0.07953083515167236, -0.06794199347496033, -0.0563531219959259, -0.04476428031921387, -0.03317543864250183, -0.021586596965789795, -0.009997755289077759, 0.0015910863876342773, 0.013179928064346313, 0.02476876974105835, 0.036357611417770386, 0.04794645309448242, 0.05953529477119446, 0.0711241364479065, 0.08271297812461853, 0.09430181980133057, 0.1058906614780426, 0.11747950315475464, 0.12906834483146667, 0.1406571865081787, 0.15224602818489075, 0.16383486986160278, 0.17542371153831482, 0.18701255321502686, 0.1986013948917389, 0.21019023656845093, 0.22177907824516296, 0.233367919921875, 0.24495676159858704, 0.2565456032752991, 0.2681344449520111, 0.27972328662872314, 0.2913121283054352, 0.3029009699821472, 0.31448981165885925]}, "gradients/norm.weight": {"_type": "histogram", "values": [1.0, 0.0, 0.0, 0.0, 0.0, 0.0, 0.0, 1.0, 0.0, 2.0, 0.0, 1.0, 0.0, 1.0, 0.0, 0.0, 0.0, 1.0, 3.0, 4.0, 4.0, 4.0, 6.0, 7.0, 11.0, 7.0, 16.0, 13.0, 13.0, 26.0, 21.0, 20.0, 26.0, 32.0, 29.0, 39.0, 28.0, 22.0, 19.0, 23.0, 28.0, 19.0, 14.0, 13.0, 9.0, 11.0, 11.0, 5.0, 1.0, 5.0, 2.0, 0.0, 5.0, 1.0, 0.0, 1.0, 2.0, 1.0, 1.0, 0.0, 1.0, 1.0, 0.0, 1.0], "bins": [-0.01313552726060152, -0.012765353545546532, -0.012395179830491543, -0.012025006115436554, -0.011654832400381565, -0.011284658685326576, -0.010914484970271587, -0.010544311255216599, -0.01017413754016161, -0.00980396382510662, -0.009433790110051632, -0.009063616394996643, -0.008693442679941654, -0.008323268964886665, -0.007953095249831676, -0.007582921534776688, -0.007212747819721699, -0.00684257410466671, -0.006472400389611721, -0.006102226674556732, -0.005732052959501743, -0.0053618792444467545, -0.004991705529391766, -0.004621531814336777, -0.004251358099281788, -0.003881184384226799, -0.00351101066917181, -0.0031408369541168213, -0.0027706632390618324, -0.0024004895240068436, -0.0020303158089518547, -0.0016601420938968658, -0.001289968378841877, -0.0009197946637868881, -0.0005496209487318993, -0.0001794472336769104, 0.00019072648137807846, 0.0005609001964330673, 0.0009310739114880562, 0.001301247626543045, 0.001671421341598034, 0.0020415950566530228, 0.0024117687717080116, 0.0027819424867630005, 0.0031521162018179893, 0.003522289916872978, 0.003892463631927967, 0.004262637346982956, 0.004632811062037945, 0.005002984777092934, 0.0053731584921479225, 0.005743332207202911, 0.0061135059222579, 0.006483679637312889, 0.006853853352367878, 0.007224027067422867, 0.007594200782477856, 0.007964374497532845, 0.008334548212587833, 0.008704721927642822, 0.009074895642697811, 0.0094450693577528, 0.009815243072807789, 0.010185416787862778, 0.010555590502917767]}, "gradients/norm.bias": {"_type": "histogram", "values": [1.0, 0.0, 0.0, 0.0, 0.0, 0.0, 0.0, 0.0, 0.0, 1.0, 0.0, 0.0, 3.0, 1.0, 3.0, 2.0, 0.0, 7.0, 4.0, 1.0, 2.0, 13.0, 13.0, 7.0, 8.0, 16.0, 17.0, 25.0, 15.0, 16.0, 33.0, 30.0, 32.0, 23.0, 27.0, 21.0, 23.0, 24.0, 29.0, 18.0, 25.0, 13.0, 10.0, 12.0, 4.0, 3.0, 9.0, 4.0, 6.0, 3.0, 2.0, 2.0, 1.0, 0.0, 0.0, 0.0, 0.0, 0.0, 0.0, 0.0, 1.0, 0.0, 1.0, 1.0], "bins": [-0.027168340981006622, -0.026342187076807022, -0.025516033172607422, -0.024689877405762672, -0.023863723501563072, -0.023037569597363472, -0.022211413830518723, -0.021385259926319122, -0.020559106022119522, -0.019732952117919922, -0.01890679821372032, -0.018080642446875572, -0.017254488542675972, -0.016428334638476372, -0.015602179802954197, -0.014776024967432022, -0.013949871063232422, -0.013123717159032822, -0.012297562323510647, -0.011471407487988472, -0.010645253583788872, -0.009819099679589272, -0.008992944844067097, -0.008166790008544922, -0.007340636104345322, -0.006514481734484434, -0.005688327364623547, -0.004862172994762659, -0.0040360186249017715, -0.003209864255040884, -0.0023837098851799965, -0.001557555515319109, -0.0007314030081033707, 9.475136175751686e-05, 0.0009209057316184044, 0.001747060101479292, 0.0025732144713401794, 0.003399368841201067, 0.0042255232110619545, 0.005051677580922842, 0.0058778319507837296, 0.006703986320644617, 0.007530140690505505, 0.00835629552602768, 0.00918244943022728, 0.01000860333442688, 0.010834758169949055, 0.01166091300547123, 0.01248706690967083, 0.01331322081387043, 0.014139375649392605, 0.01496553048491478, 0.01579168438911438, 0.01661783829331398, 0.01744399219751358, 0.01827014796435833, 0.01909630186855793, 0.01992245577275753, 0.02074861153960228, 0.02157476544380188, 0.02240091934800148, 0.02322707325220108, 0.02405322715640068, 0.02487938292324543, 0.02570553682744503]}, "Tr_loss": 0.6170105338096619, "Tr_acc": 0.7181712172923777, "Val_loss": 0.6072417048867359, "Val_acc": 0.7193230944254835, "Confusion_Matrix": [[0.8444403345457534, 0.0675256354930851, 0.049400982265787145, 0.03863304769537431], [0.16377490788108612, 0.8098951811970093, 0.00958752191178049, 0.016742389010124138], [0.3179411886347657, 0.052359485503949706, 0.5681169609992142, 0.061582364862070395], [0.2096958249714713, 0.05145004525242986, 0.045272104828237514, 0.6935820249478614]], "_runtime": 38849.79378700256, "_step": 4, "_wandb": {"runtime": 38848}}