{"gradients/fc2.bias": {"_type": "histogram", "values": [1.0, 0.0, 0.0, 0.0, 0.0, 0.0, 0.0, 0.0, 0.0, 0.0, 0.0, 0.0, 0.0, 0.0, 0.0, 0.0, 0.0, 0.0, 1.0, 0.0, 0.0, 0.0, 0.0, 0.0, 0.0, 1.0, 0.0, 0.0, 0.0, 0.0, 0.0, 0.0, 0.0, 0.0, 0.0, 0.0, 0.0, 0.0, 0.0, 0.0, 0.0, 0.0, 0.0, 0.0, 0.0, 0.0, 0.0, 0.0, 0.0, 0.0, 0.0, 0.0, 0.0, 0.0, 0.0, 0.0, 0.0, 0.0, 0.0, 0.0, 0.0, 0.0, 0.0, 1.0], "bins": [-0.035466089844703674, -0.034158676862716675, -0.03285126015543938, -0.03154384717345238, -0.030236434191465378, -0.02892901934683323, -0.02762160450220108, -0.02631419152021408, -0.02500677853822708, -0.023699363693594933, -0.022391950711607933, -0.021084535866975784, -0.019777122884988785, -0.018469708040356636, -0.017162293195724487, -0.015854880213737488, -0.014547465369105339, -0.013240051455795765, -0.01193263754248619, -0.010625222697854042, -0.009317809715867043, -0.008010394871234894, -0.00670298095792532, -0.0053955670446157455, -0.004088153131306171, -0.0027807392179965973, -0.0014733250718563795, -0.00016591092571616173, 0.0011415029875934124, 0.0024489169009029865, 0.003756331279873848, 0.005063745193183422, 0.006371159106492996, 0.00767857301980257, 0.008985986933112144, 0.010293401777744293, 0.011600814759731293, 0.012908229604363441, 0.014215643517673016, 0.01552305743098259, 0.01683047041296959, 0.018137885257601738, 0.019445298239588737, 0.020752713084220886, 0.022060126066207886, 0.023367540910840034, 0.024674955755472183, 0.025982368737459183, 0.02728978358209133, 0.02859719842672348, 0.02990461140871048, 0.03121202625334263, 0.03251944109797478, 0.03382685407996178, 0.035134267061948776, 0.036441683769226074, 0.037749096751213074, 0.03905650973320007, 0.04036392644047737, 0.04167133942246437, 0.04297875240445137, 0.04428616538643837, 0.04559358209371567, 0.04690099507570267, 0.04820840805768967]}, "_timestamp": 1719991520.782371, "gradients/fc2.weight": {"_type": "histogram", "values": [1.0, 0.0, 0.0, 0.0, 0.0, 0.0, 0.0, 0.0, 0.0, 0.0, 0.0, 0.0, 0.0, 0.0, 2.0, 0.0, 1.0, 1.0, 0.0, 0.0, 2.0, 1.0, 0.0, 2.0, 2.0, 9.0, 5.0, 4.0, 18.0, 15.0, 928.0, 9.0, 4.0, 5.0, 1.0, 1.0, 2.0, 1.0, 4.0, 1.0, 0.0, 0.0, 0.0, 1.0, 0.0, 0.0, 0.0, 0.0, 0.0, 1.0, 1.0, 0.0, 0.0, 0.0, 0.0, 0.0, 0.0, 0.0, 0.0, 0.0, 1.0, 0.0, 0.0, 1.0], "bins": [-0.13633769750595093, -0.13180331885814667, -0.1272689402103424, -0.12273456901311874, -0.11820019781589508, -0.11366581916809082, -0.10913144052028656, -0.1045970693230629, -0.10006269812583923, -0.09552831947803497, -0.09099394828081131, -0.08645956963300705, -0.08192519843578339, -0.07739081978797913, -0.07285644114017487, -0.0683220699429512, -0.06378769129514694, -0.05925331637263298, -0.05471894145011902, -0.05018456280231476, -0.045650191605091095, -0.041115812957286835, -0.03658143803477287, -0.03204706311225891, -0.02751268818974495, -0.022978313267230988, -0.018443938344717026, -0.013909561559557915, -0.009375186637043953, -0.004840811714529991, -0.0003064349293708801, 0.004227939993143082, 0.008762314915657043, 0.013296689838171005, 0.017831064760684967, 0.022365441545844078, 0.02689981646835804, 0.03143419325351715, 0.03596856817603111, 0.040502943098545074, 0.045037318021059036, 0.049571692943573, 0.05410606786608696, 0.05864044278860092, 0.06317482143640518, 0.06770919263362885, 0.0722435712814331, 0.07677794992923737, 0.08131232112646103, 0.08584669977426529, 0.09038107097148895, 0.09491544961929321, 0.09944982081651688, 0.10398419946432114, 0.1085185706615448, 0.11305294930934906, 0.11758732795715332, 0.12212170660495758, 0.12665608525276184, 0.1311904489994049, 0.13572482764720917, 0.14025920629501343, 0.1447935849428177, 0.14932796359062195, 0.15386232733726501]}, "gradients/fc1.bias": {"_type": "histogram", "values": [1.0, 0.0, 0.0, 0.0, 0.0, 0.0, 0.0, 0.0, 0.0, 0.0, 0.0, 0.0, 0.0, 0.0, 0.0, 0.0, 0.0, 0.0, 0.0, 0.0, 0.0, 0.0, 0.0, 0.0, 0.0, 1.0, 0.0, 1.0, 2.0, 0.0, 0.0, 1.0, 0.0, 0.0, 0.0, 0.0, 0.0, 0.0, 0.0, 1.0, 0.0, 0.0, 0.0, 1.0, 1.0, 0.0, 3.0, 4.0, 226.0, 3.0, 2.0, 1.0, 0.0, 1.0, 0.0, 0.0, 0.0, 0.0, 1.0, 0.0, 0.0, 1.0, 0.0, 5.0], "bins": [-0.04895368590950966, -0.04793480411171913, -0.046915922313928604, -0.04589703679084778, -0.04487815499305725, -0.043859273195266724, -0.042840391397476196, -0.04182150959968567, -0.04080262780189514, -0.039783746004104614, -0.03876486420631409, -0.03774597868323326, -0.036727096885442734, -0.035708215087652206, -0.03468933328986168, -0.03367045149207115, -0.032651565968990326, -0.0316326841711998, -0.030613800510764122, -0.029594918712973595, -0.028576035052537918, -0.02755715325474739, -0.026538271456956863, -0.025519389659166336, -0.02450050599873066, -0.023481624200940132, -0.022462740540504456, -0.021443858742713928, -0.0204249769449234, -0.019406093284487724, -0.018387211486697197, -0.01736832782626152, -0.016349444165825844, -0.015330561436712742, -0.01431167870759964, -0.013292796909809113, -0.01227391418069601, -0.011255031451582909, -0.010236149653792381, -0.00921726692467928, -0.008198384195566177, -0.007179501466453075, -0.006160619203001261, -0.005141736939549446, -0.004122854210436344, -0.003103971481323242, -0.0020850892178714275, -0.0010662069544196129, -4.7324225306510925e-05, 0.0009715582709759474, 0.0019904407672584057, 0.003009323263540864, 0.004028205759823322, 0.005047088488936424, 0.006065970752388239, 0.0070848530158400536, 0.008103735744953156, 0.009122618474066257, 0.01014150120317936, 0.011160383000969887, 0.012179265730082989, 0.01319814845919609, 0.014217030256986618, 0.01523591298609972, 0.016254795715212822]}, "gradients/fc1.weight": {"_type": "histogram", "values": [2.0, 0.0, 1.0, 0.0, 1.0, 3.0, 7.0, 1.0, 6.0, 4.0, 9.0, 12.0, 11.0, 7.0, 11.0, 16.0, 9.0, 10.0, 6.0, 5.0, 4.0, 8.0, 4.0, 9.0, 12.0, 22.0, 30.0, 30.0, 62.0, 47.0, 87.0, 123.0, 197.0, 290.0, 196.0, 256.0, 360.0, 428.0, 892.0, 1577.0, 2077.0, 3789.0, 8043.0, 4066309.0, 5212.0, 2032.0, 2046.0, 720.0, 332.0, 220.0, 135.0, 95.0, 71.0, 44.0, 40.0, 17.0, 19.0, 9.0, 11.0, 12.0, 2.0, 3.0, 3.0, 4.0], "bins": [-0.011754725128412247, -0.011483305133879185, -0.011211886070668697, -0.010940466076135635, -0.010669047012925148, -0.010397627018392086, -0.010126207955181599, -0.009854787960648537, -0.00958336889743805, -0.009311948902904987, -0.0090405298396945, -0.008769109845161438, -0.00849769078195095, -0.008226270787417889, -0.007954851724207401, -0.007683431729674339, -0.007412011735141277, -0.007140592206269503, -0.006869172677397728, -0.006597753148525953, -0.006326333619654179, -0.006054913625121117, -0.005783494096249342, -0.005512074567377567, -0.005240655038505793, -0.004969235509634018, -0.004697815980762243, -0.004426396451890469, -0.004154976457357407, -0.0038835571613162756, -0.0036121373996138573, -0.0033407178707420826, -0.0030692988075315952, -0.0027978792786598206, -0.002526459749788046, -0.0022550399880856276, -0.001983620459213853, -0.0017122009303420782, -0.0014407812850549817, -0.0011693616397678852, -0.0008979421108961105, -0.000626522523816675, -0.00035510293673723936, -8.368334965780377e-05, 0.0001877362374216318, 0.0004591557662934065, 0.000730575411580503, 0.0010019950568675995, 0.0012734145857393742, 0.0015448341146111488, 0.0018162537598982453, 0.002087673405185342, 0.0023590929340571165, 0.002630512462928891, 0.0029019322246313095, 0.003173351753503084, 0.003444771282374859, 0.0037161908112466335, 0.003987610340118408, 0.004259029868990183, 0.0045304493978619576, 0.0048018693923950195, 0.005073288921266794, 0.005344708450138569, 0.0056161279790103436]}, "gradients/conv2.weight": {"_type": "histogram", "values": [1.0, 2.0, 1.0, 3.0, 2.0, 2.0, 3.0, 8.0, 4.0, 1.0, 7.0, 7.0, 3.0, 14.0, 21.0, 40.0, 64.0, 55.0, 32.0, 28.0, 36.0, 40.0, 21.0, 493.0, 22816.0, 335.0, 184.0, 116.0, 78.0, 41.0, 21.0, 17.0, 8.0, 4.0, 8.0, 9.0, 4.0, 2.0, 0.0, 2.0, 1.0, 2.0, 3.0, 4.0, 4.0, 2.0, 2.0, 3.0, 0.0, 1.0, 1.0, 1.0, 2.0, 1.0, 4.0, 0.0, 2.0, 1.0, 0.0, 2.0, 2.0, 1.0, 3.0, 1.0], "bins": [-0.20477981865406036, -0.1963167041540146, -0.18785360455513, -0.17939049005508423, -0.17092737555503845, -0.16246427595615387, -0.1540011614561081, -0.1455380618572235, -0.13707494735717773, -0.12861183285713196, -0.12014873325824738, -0.1116856187582016, -0.10322251170873642, -0.09475940465927124, -0.08629629015922546, -0.07783318310976028, -0.0693700760602951, -0.060906969010829926, -0.05244385823607445, -0.04398074746131897, -0.03551764041185379, -0.02705453336238861, -0.018591422587633133, -0.010128311812877655, -0.0016652047634124756, 0.006797904148697853, 0.015261013060808182, 0.02372412197291851, 0.03218723088502884, 0.04065033793449402, 0.049113448709249496, 0.057576559484004974, 0.06603968143463135, 0.07450278848409653, 0.0829658955335617, 0.09142901003360748, 0.09989211708307266, 0.10835522413253784, 0.11681833863258362, 0.1252814531326294, 0.13374455273151398, 0.14220766723155975, 0.15067076683044434, 0.1591338813304901, 0.1675969958305359, 0.17606009542942047, 0.18452320992946625, 0.19298630952835083, 0.2014494240283966, 0.20991253852844238, 0.21837563812732697, 0.22683875262737274, 0.23530185222625732, 0.2437649667263031, 0.2522280812263489, 0.26069119572639465, 0.26915431022644043, 0.2776174247264862, 0.286080539226532, 0.29454362392425537, 0.30300673842430115, 0.3114698529243469, 0.3199329674243927, 0.3283960819244385, 0.33685916662216187]}, "gradients/conv2.bias": {"_type": "histogram", "values": [1.0, 0.0, 0.0, 0.0, 0.0, 0.0, 0.0, 0.0, 0.0, 0.0, 0.0, 0.0, 0.0, 0.0, 0.0, 0.0, 0.0, 1.0, 0.0, 0.0, 119.0, 1.0, 1.0, 1.0, 1.0, 0.0, 1.0, 0.0, 1.0, 0.0, 0.0, 0.0, 0.0, 0.0, 0.0, 0.0, 0.0, 0.0, 0.0, 0.0, 0.0, 0.0, 0.0, 0.0, 0.0, 0.0, 0.0, 0.0, 0.0, 0.0, 0.0, 0.0, 0.0, 0.0, 0.0, 0.0, 0.0, 0.0, 0.0, 0.0, 0.0, 0.0, 0.0, 1.0], "bins": [-0.5958715677261353, -0.567004919052124, -0.538138210773468, -0.5092715620994568, -0.48040488362312317, -0.45153820514678955, -0.4226715564727783, -0.3938048779964447, -0.3649381995201111, -0.33607152104377747, -0.30720484256744385, -0.2783381938934326, -0.249471515417099, -0.22060483694076538, -0.19173817336559296, -0.16287150979042053, -0.13400483131408691, -0.10513816028833389, -0.07627148926258087, -0.04740481823682785, -0.01853814721107483, 0.010328531265258789, 0.03919519484043121, 0.06806185841560364, 0.09692853689193726, 0.12579521536827087, 0.1546618789434433, 0.18352854251861572, 0.21239522099494934, 0.24126189947128296, 0.2701285481452942, 0.2989952266216278, 0.3278619050979614, 0.35672858357429504, 0.38559526205062866, 0.4144619107246399, 0.4433285892009735, 0.47219526767730713, 0.5010619163513184, 0.5299285650253296, 0.5587952733039856, 0.5876619219779968, 0.6165286302566528, 0.6453952789306641, 0.6742619276046753, 0.7031286358833313, 0.7319952845573425, 0.7608619928359985, 0.7897286415100098, 0.818595290184021, 0.847461998462677, 0.8763286471366882, 0.9051953554153442, 0.9340620040893555, 0.9629286527633667, 0.9917953014373779, 1.0206620693206787, 1.04952871799469, 1.0783953666687012, 1.107262134552002, 1.1361287832260132, 1.1649954319000244, 1.1938620805740356, 1.2227287292480469, 1.251595377922058]}, "gradients/conv1.weight": {"_type": "histogram", "values": [1.0, 0.0, 0.0, 0.0, 2.0, 1.0, 0.0, 1.0, 0.0, 3.0, 3.0, 0.0, 6.0, 3.0, 4.0, 1.0, 5.0, 6.0, 8.0, 11.0, 7.0, 3.0, 8.0, 10.0, 19.0, 19.0, 22.0, 33.0, 36.0, 38.0, 58.0, 70.0, 70.0, 50.0, 81.0, 46.0, 51.0, 37.0, 24.0, 30.0, 19.0, 18.0, 14.0, 8.0, 9.0, 5.0, 6.0, 10.0, 5.0, 5.0, 5.0, 5.0, 3.0, 4.0, 2.0, 4.0, 2.0, 2.0, 0.0, 0.0, 2.0, 0.0, 0.0, 1.0], "bins": [-0.02834528498351574, -0.027487101033329964, -0.026628917083144188, -0.025770733132958412, -0.024912549182772636, -0.02405436523258686, -0.023196179419755936, -0.02233799546957016, -0.021479811519384384, -0.02062162756919861, -0.019763443619012833, -0.018905259668827057, -0.01804707571864128, -0.017188891768455505, -0.01633070781826973, -0.01547252293676138, -0.014614339917898178, -0.013756155967712402, -0.012897972017526627, -0.01203978806734085, -0.011181604117155075, -0.0103234201669693, -0.009465235285460949, -0.008607051335275173, -0.007748867385089397, -0.006890683434903622, -0.006032499484717846, -0.005174315068870783, -0.004316131118685007, -0.0034579471684992313, -0.0025997627526521683, -0.0017415788024663925, -0.0008833929896354675, -2.5208923034369946e-05, 0.0008329751435667276, 0.001691159326583147, 0.002549343276768923, 0.0034075272269546986, 0.004265711642801762, 0.005123895592987537, 0.005982079543173313, 0.006840263493359089, 0.007698447443544865, 0.008556632325053215, 0.00941481627523899, 0.010273000225424767, 0.011131184175610542, 0.011989368125796318, 0.012847552075982094, 0.01370573602616787, 0.014563919976353645, 0.015422103926539421, 0.016280287876725197, 0.017138471826910973, 0.017996657639741898, 0.018854841589927673, 0.01971302554011345, 0.020571209490299225, 0.021429393440485, 0.022287577390670776, 0.023145761340856552, 0.024003945291042328, 0.024862129241228104, 0.02572031319141388, 0.026578497141599655]}, "gradients/conv1.bias": {"_type": "histogram", "values": [1.0, 0.0, 0.0, 0.0, 0.0, 0.0, 0.0, 0.0, 0.0, 1.0, 0.0, 1.0, 0.0, 0.0, 0.0, 0.0, 0.0, 1.0, 2.0, 1.0, 0.0, 0.0, 0.0, 0.0, 0.0, 0.0, 1.0, 0.0, 0.0, 0.0, 3.0, 0.0, 2.0, 0.0, 1.0, 2.0, 2.0, 5.0, 6.0, 7.0, 9.0, 5.0, 2.0, 0.0, 1.0, 3.0, 1.0, 1.0, 2.0, 0.0, 0.0, 1.0, 1.0, 0.0, 1.0, 0.0, 0.0, 0.0, 0.0, 0.0, 0.0, 0.0, 0.0, 1.0], "bins": [-1.049471378326416, -1.0226092338562012, -0.9957470297813416, -0.9688848257064819, -0.9420226812362671, -0.9151604771614075, -0.8882982730865479, -0.861436128616333, -0.8345739245414734, -0.8077117204666138, -0.7808495759963989, -0.7539873719215393, -0.7271252274513245, -0.7002630233764648, -0.67340087890625, -0.6465386748313904, -0.6196764707565308, -0.5928142666816711, -0.5659521222114563, -0.5390899181365967, -0.5122277736663818, -0.4853655695915222, -0.458503395318985, -0.43164122104644775, -0.4047790765762329, -0.3779169023036957, -0.35105472803115845, -0.32419252395629883, -0.2973303496837616, -0.27046817541122437, -0.24360600113868713, -0.2167438119649887, -0.18988162279129028, -0.16301944851875305, -0.13615725934505463, -0.1092950850725174, -0.08243290334939957, -0.05557072162628174, -0.028708547353744507, -0.0018463581800460815, 0.02501581609249115, 0.05187799781560898, 0.0787401795387268, 0.10560235381126404, 0.13246452808380127, 0.1593267172574997, 0.18618889153003693, 0.21305108070373535, 0.23991325497627258, 0.2667754292488098, 0.29363760352134705, 0.3204997777938843, 0.3473619818687439, 0.37422415614128113, 0.40108633041381836, 0.427948534488678, 0.4548106789588928, 0.48167285323143005, 0.5085350275039673, 0.5353972315788269, 0.5622593760490417, 0.5891215801239014, 0.6159837245941162, 0.6428459286689758, 0.6697081327438354]}, "Tr_loss": 0.878115177154541, "Tr_acc": 0.557646473265074, "Val_loss": 1.595423482531725, "Val_acc": 0.47301478953356085, "Confusion_Matrix": [[0.3183733020981033, 0.013439368719561064, 0.20664570618334258, 0.4615416229989931], [0.10853933388187315, 0.33584946159625084, 0.10474725431975102, 0.450863950202125], [0.11940113321477315, 0.008395715290127797, 0.38525166466768684, 0.48695148682741224], [0.09666312517215599, 0.008755361429189784, 0.15078896627710228, 0.743792547121552]], "_runtime": 40382.09381914139, "_step": 4, "_wandb": {"runtime": 40381}}